{"learner":{"attributes":{"scikit_learn":"{\"_estimator_type\": \"classifier\"}"},"feature_names":["ear","blink_duration","mar","head_deviation"],"feature_types":["float","float","float","float"],"gradient_booster":{"model":{"cats":{"enc":[],"feature_segments":[],"sorted_idx":[]},"gbtree_model_param":{"num_parallel_tree":"1","num_trees":"600"},"iteration_indptr":[0,3,6,9,12,15,18,21,24,27,30,33,36,39,42,45,48,51,54,57,60,63,66,69,72,75,78,81,84,87,90,93,96,99,102,105,108,111,114,117,120,123,126,129,132,135,138,141,144,147,150,153,156,159,162,165,168,171,174,177,180,183,186,189,192,195,198,201,204,207,210,213,216,219,222,225,228,231,234,237,240,243,246,249,252,255,258,261,264,267,270,273,276,279,282,285,288,291,294,297,300,303,306,309,312,315,318,321,324,327,330,333,336,339,342,345,348,351,354,357,360,363,366,369,372,375,378,381,384,387,390,393,396,399,402,405,408,411,414,417,420,423,426,429,432,435,438,441,444,447,450,453,456,459,462,465,468,471,474,477,480,483,486,489,492,495,498,501,504,507,510,513,516,519,522,525,528,531,534,537,540,543,546,549,552,555,558,561,564,567,570,573,576,579,582,585,588,591,594,597,600],"tree_info":[0,1,2,0,1,2,0,1,2,0,1,2,0,1,2,0,1,2,0,1,2,0,1,2,0,1,2,0,1,2,0,1,2,0,1,2,0,1,2,0,1,2,0,1,2,0,1,2,0,1,2,0,1,2,0,1,2,0,1,2,0,1,2,0,1,2,0,1,2,0,1,2,0,1,2,0,1,2,0,1,2,0,1,2,0,1,2,0,1,2,0,1,2,0,1,2,0,1,2,0,1,2,0,1,2,0,1,2,0,1,2,0,1,2,0,1,2,0,1,2,0,1,2,0,1,2,0,1,2,0,1,2,0,1,2,0,1,2,0,1,2,0,1,2,0,1,2,0,1,2,0,1,2,0,1,2,0,1,2,0,1,2,0,1,2,0,1,2,0,1,2,0,1,2,0,1,2,0,1,2,0,1,2,0,1,2,0,1,2,0,1,2,0,1,2,0,1,2,0,1,2,0,1,2,0,1,2,0,1,2,0,1,2,0,1,2,0,1,2,0,1,2,0,1,2,0,1,2,0,1,2,0,1,2,0,1,2,0,1,2,0,1,2,0,1,2,0,1,2,0,1,2,0,1,2,0,1,2,0,1,2,0,1,2,0,1,2,0,1,2,0,1,2,0,1,2,0,1,2,0,1,2,0,1,2,0,1,2,0,1,2,0,1,2,0,1,2,0,1,2,0,1,2,0,1,2,0,1,2,0,1,2,0,1,2,0,1,2,0,1,2,0,1,2,0,1,2,0,1,2,0,1,2,0,1,2,0,1,2,0,1,2,0,1,2,0,1,2,0,1,2,0,1,2,0,1,2,0,1,2,0,1,2,0,1,2,0,1,2,0,1,2,0,1,2,0,1,2,0,1,2,0,1,2,0,1,2,0,1,2,0,1,2,0,1,2,0,1,2,0,1,2,0,1,2,0,1,2,0,1,2,0,1,2,0,1,2,0,1,2,0,1,2,0,1,2,0,1,2,0,1,2,0,1,2,0,1,2,0,1,2,0,1,2,0,1,2,0,1,2,0,1,2,0,1,2,0,1,2,0,1,2,0,1,2,0,1,2,0,1,2,0,1,2,0,1,2,0,1,2,0,1,2,0,1,2,0,1,2,0,1,2,0,1,2,0,1,2,0,1,2,0,1,2,0,1,2,0,1,2,0,1,2,0,1,2,0,1,2,0,1,2,0,1,2,0,1,2,0,1,2,0,1,2,0,1,2,0,1,2,0,1,2,0,1,2,0,1,2,0,1,2,0,1,2,0,1,2,0,1,2,0,1,2,0,1,2,0,1,2,0,1,2,0,1,2,0,1,2,0,1,2,0,1,2,0,1,2,0,1,2,0,1,2,0,1,2,0,1,2],"trees":[{"base_weights":[-4.4675563E-8,4.9069E-1,-6.502178E-1,1.201981E0,-7.0100754E-1,-3.3874387E-1,-3.7054043E-2,1.3626026E0,-6.894866E-1,-2.9126218E-1,-3.7216425E-2,4.5842692E-1,-6.9724774E-1,-1.1111116E-1,1.3855035E0,-1.2772424E-9,-3.5516378E-2,4.6788988E-1,-6.746412E-1,6.8292683E-1,-5.647059E-1,-3.3600006E-1,-3.7109833E-2,2.027027E-2,-2.2641512E-2,7.003496E-2,3.1651374E-2,-1.8292686E-2,4.2857144E-2,-3.571429E-2,-1.0344829E-2,9.763312E-3,5.2392345E-2,-1.2772424E-9,-3.2876715E-2,7.894735E-3,-3.311689E-2],"categories":[],"categories_nodes":[],"categories_segments":[],"categories_sizes":[],"default_left":[0,0,0,0,0,0,0,0,0,0,0,0,0,0,0,0,0,0,0,0,0,0,0,0,0,0,0,0,0,0,0,0,0,0,0,0,0],"id":0,"left_children":[1,3,5,7,9,11,-1,13,15,17,-1,19,21,23,25,-1,-1,27,29,31,33,35,-1,-1,-1,-1,-1,-1,-1,-1,-1,-1,-1,-1,-1,-1,-1],"loss_changes":[5.1112668E2,7.747412E2,1.9248657E1,1.7475305E2,5.8519287E0,4.53155E1,0E0,1.7962341E1,6.5301514E-1,1.0308132E1,0E0,1.1742705E1,1.5205269E0,1.7721119E0,5.055359E0,0E0,0E0,4.244094E0,2.8283978E-1,7.091631E0,4.9508452E-1,2.3431416E0,0E0,0E0,0E0,0E0,0E0,0E0,0E0,0E0,0E0,0E0,0E0,0E0,0E0,0E0,0E0],"parents":[2147483647,0,0,1,1,2,2,3,3,4,4,5,5,7,7,8,8,9,9,11,11,12,12,13,13,14,14,17,17,18,18,19,19,20,20,21,21],"right_children":[2,4,6,8,10,12,-1,14,16,18,-1,20,22,24,26,-1,-1,28,30,32,34,36,-1,-1,-1,-1,-1,-1,-1,-1,-1,-1,-1,-1,-1,-1,-1],"split_conditions":[1.4030531E-1,2.4443434E-1,2.2536342E-1,3.9092946E-1,3.0355313E-1,2.2109985E-1,-3.7054043E-2,1.6047312E-1,3.9566287E-1,2.3927352E-1,-3.7216425E-2,1.9677944E-1,1.7453608E-1,8.78979E-2,3.3064085E-1,-1.2772424E-9,-3.5516378E-2,2.4145803E-1,3.2129773E-1,3.1755993E-1,2.0390423E-1,3.4035906E-1,-3.7109833E-2,2.027027E-2,-2.2641512E-2,7.003496E-2,3.1651374E-2,-1.8292686E-2,4.2857144E-2,-3.571429E-2,-1.0344829E-2,9.763312E-3,5.2392345E-2,-1.2772424E-9,-3.2876715E-2,7.894735E-3,-3.311689E-2],"split_indices":[3,2,3,1,2,1,0,0,1,1,0,2,2,2,1,0,0,0,0,0,2,1,0,0,0,0,0,0,0,0,0,0,0,0,0,0,0],"split_type":[0,0,0,0,0,0,0,0,0,0,0,0,0,0,0,0,0,0,0,0,0,0,0,0,0,0,0,0,0,0,0,0,0,0,0,0,0],"sum_hessian":[1.5999999E3,9.1199994E2,6.8799994E2,5.711111E2,3.4088885E2,1.5644443E2,5.3155554E2,5.266666E2,4.4444443E1,3.3333332E1,3.0755554E2,4.8444443E1,1.0799999E2,7.9999995E0,5.186666E2,1.3333333E0,4.3111107E1,1.1111111E1,2.2222221E1,3.9999996E1,8.444444E0,1.2888888E1,9.511111E1,3.111111E0,4.8888884E0,5.075555E2,1.1111111E1,3.5555553E0,7.5555553E0,1.9999998E1,2.222222E0,1.7777777E1,2.2222221E1,1.3333333E0,7.1111107E0,5.333333E0,7.5555553E0],"tree_param":{"num_deleted":"0","num_feature":"4","num_nodes":"37","size_leaf_vector":"1"}},{"base_weights":[-4.4675563E-8,-6.3999605E-1,1.4303343E0,-6.7707783E-1,-7.246382E-2,1.4762452E0,-5.229358E-1,-6.9810414E-1,-5.0974935E-1,6.9473684E-1,-7.043479E-1,1.4865115E0,-2.5862072E-2,-3.402062E-2,2.142857E-2,-1.3043483E-1,-7.0210445E-1,-1.1140588E-1,-7.1509176E-1,9.0361446E-1,-3.0000001E-2,-1.2772424E-9,-3.6486488E-2,-1.2772424E-9,7.453179E-2,2.7272725E-2,-3.0000001E-2,-3.305226E-2,-3.6646437E-2,-4.6154065E-4,-3.196722E-2,-1.6216218E-2,-3.6343616E-2,3.235294E-2,6.0000002E-2],"categories":[],"categories_nodes":[],"categories_segments":[],"categories_sizes":[],"default_left":[0,0,0,0,0,0,0,0,0,0,0,0,0,0,0,0,0,0,0,0,0,0,0,0,0,0,0,0,0,0,0,0,0,0,0],"id":1,"left_children":[1,3,5,7,9,11,13,15,17,19,21,23,-1,-1,-1,25,27,29,31,33,-1,-1,-1,-1,-1,-1,-1,-1,-1,-1,-1,-1,-1,-1,-1],"loss_changes":[1.466484E3,2.3243164E1,4.518152E1,3.2988586E0,3.393928E1,1.0676636E1,2.1063359E0,1.9978638E0,9.708683E0,9.106149E0,6.853142E-1,2.9543457E0,0E0,0E0,0E0,2.7604742E0,6.715393E-1,2.2536747E0,1.2690735E-1,1.3272858E0,0E0,0E0,0E0,0E0,0E0,0E0,0E0,0E0,0E0,0E0,0E0,0E0,0E0,0E0,0E0],"parents":[2147483647,0,0,1,1,2,2,3,3,4,4,5,5,6,6,7,7,8,8,9,9,10,10,11,11,15,15,16,16,17,17,18,18,19,19],"right_children":[2,4,6,8,10,12,14,16,18,20,22,24,-1,-1,-1,26,28,30,32,34,-1,-1,-1,-1,-1,-1,-1,-1,-1,-1,-1,-1,-1,-1,-1],"split_conditions":[2.6166338E-1,1.9738421E-1,3.9426515E-1,1.4320232E-1,2.6227033E-1,4.2559305E-1,2.6630026E-1,-1.601947E-1,2.8147787E-1,4.0125006E-1,3.391961E-2,-1.0973337E-2,-2.5862072E-2,-3.402062E-2,2.142857E-2,2.5680792E-1,1.8073173E-1,3.4836453E-1,4.217879E-2,1.0692508E-1,-3.0000001E-2,-1.2772424E-9,-3.6486488E-2,-1.2772424E-9,7.453179E-2,2.7272725E-2,-3.0000001E-2,-3.305226E-2,-3.6646437E-2,-4.6154065E-4,-3.196722E-2,-1.6216218E-2,-3.6343616E-2,3.235294E-2,6.0000002E-2],"split_indices":[3,3,2,3,1,1,0,3,1,2,2,0,0,0,0,1,1,2,2,2,0,0,0,0,0,0,0,0,0,0,0,0,0,0,0],"split_type":[0,0,0,0,0,0,0,0,0,0,0,0,0,0,0,0,0,0,0,0,0,0,0,0,0,0,0,0,0,0,0,0,0,0,0],"sum_hessian":[1.5999999E3,1.1057777E3,4.942222E2,1.0377777E3,6.799999E1,4.8311108E2,1.1111111E1,9.191111E2,1.1866666E2,3.0666664E1,3.7333332E1,4.8088885E2,2.222222E0,9.777777E0,1.3333333E0,6.666666E0,9.124444E2,4.0888885E1,7.777777E1,2.6666664E1,3.9999998E0,1.3333333E0,3.5999996E1,1.3333333E0,4.7955554E2,2.6666665E0,3.9999998E0,4.0088885E2,5.115555E2,3.511111E1,5.7777777E0,3.111111E0,7.4666664E1,1.5999999E1,1.0666666E1],"tree_param":{"num_deleted":"0","num_feature":"4","num_nodes":"35","size_leaf_vector":"1"}},{"base_weights":[-4.4675563E-8,-5.787344E-1,1.3667521E0,-7.0653445E-1,1.249624E0,1.4048468E0,-5.7303375E-1,3.4883717E-1,-7.2041065E-1,1.4330579E0,-5.217392E-1,9.1099477E-1,7.395062E-2,-1.2772424E-9,-3.311689E-2,5.958904E-2,-3.2307696E-2,-7.277664E-1,-2.3529416E-1,7.378815E-2,7.8947365E-1,-3.157895E-2,-1.2772424E-9,-5.853663E-2,1.4164456E0,-2.8571432E-2,-3.698534E-2,2.7049178E-2,-3.415842E-2,-6.0000014E-3,5.8536585E-2,3.8888887E-2,-2.8195491E-2,7.191781E-2,2.142857E-2],"categories":[],"categories_nodes":[],"categories_segments":[],"categories_sizes":[],"default_left":[0,0,0,0,0,0,0,0,0,0,0,0,0,0,0,0,0,0,0,0,0,0,0,0,0,0,0,0,0,0,0,0,0,0,0],"id":2,"left_children":[1,3,5,7,9,11,13,15,17,19,21,23,-1,-1,-1,-1,-1,25,27,-1,29,-1,-1,31,33,-1,-1,-1,-1,-1,-1,-1,-1,-1,-1],"loss_changes":[1.2671602E3,2.63859E2,3.6020264E1,1.5665527E1,2.475624E1,1.578186E1,5.0605583E-1,1.2791747E1,3.5371704E0,6.824951E-1,4.393592E-1,3.1282799E1,0E0,0E0,0E0,0E0,0E0,1.4873657E0,6.280054E0,0E0,2.3365338E0,0E0,0E0,1.0065643E1,2.9023743E-1,0E0,0E0,0E0,0E0,0E0,0E0,0E0,0E0,0E0,0E0],"parents":[2147483647,0,0,1,1,2,2,3,3,4,4,5,5,6,6,7,7,8,8,9,9,10,10,11,11,17,17,18,18,20,20,23,23,24,24],"right_children":[2,4,6,8,10,12,14,16,18,20,22,24,-1,-1,-1,-1,-1,26,28,-1,30,-1,-1,32,34,-1,-1,-1,-1,-1,-1,-1,-1,-1,-1],"split_conditions":[3.1465825E-1,3.331551E-1,3.726497E-1,1.1844873E-1,2.7969095E-1,1.7802018E-1,1.6047312E-1,3.21164E-1,2.8789845E-1,3.6349562E-1,2.3492733E-1,3.9566287E-1,7.395062E-2,-1.2772424E-9,-3.311689E-2,5.958904E-2,-3.2307696E-2,2.0721586E-1,1.935037E-1,7.378815E-2,4.0125006E-1,-3.157895E-2,-1.2772424E-9,2.6630026E-1,2.6166338E-1,-2.8571432E-2,-3.698534E-2,2.7049178E-2,-3.415842E-2,-6.0000014E-3,5.8536585E-2,3.8888887E-2,-2.8195491E-2,7.191781E-2,2.142857E-2],"split_indices":[1,2,3,0,3,2,0,3,2,0,1,1,0,0,0,0,0,0,3,0,2,0,0,0,3,0,0,0,0,0,0,0,0,0,0],"split_type":[0,0,0,0,0,0,0,0,0,0,0,0,0,0,0,0,0,0,0,0,0,0,0,0,0,0,0,0,0,0,0,0,0,0,0],"sum_hessian":[1.5999999E3,1.1244443E3,4.7555554E2,1.0515555E3,7.2888885E1,4.6666663E2,8.888888E0,1.3333332E1,1.0382222E3,6.622222E1,6.666666E0,6.2666664E1,4.0399997E2,1.3333333E0,7.5555553E0,7.1111107E0,6.222222E0,1.02222217E3,1.5999999E1,6.0888885E1,5.333333E0,5.333333E0,1.3333333E0,2.1777777E1,4.0888885E1,7.599999E1,9.4622217E2,5.7777777E0,1.0222221E1,1.7777777E0,3.5555553E0,7.9999995E0,1.3777777E1,3.9555553E1,1.3333333E0],"tree_param":{"num_deleted":"0","num_feature":"4","num_nodes":"35","size_leaf_vector":"1"}},{"base_weights":[-2.6915892E-5,4.6672273E-1,-6.3629353E-1,1.1242484E0,-6.871898E-1,-3.2883155E-1,-3.634687E-2,1.2696867E0,-6.7572564E-1,-2.8387144E-1,-3.651871E-2,3.5275623E-1,-3.643899E-2,-1.1460853E-1,1.2905896E0,-5.063332E-5,-3.4825075E-2,4.4164813E-1,-6.613157E-1,-5.385687E-1,6.0347754E-1,1.9270113E-2,-2.2453455E-2,6.521228E-2,3.0082826E-2,-1.8177174E-2,4.053224E-2,-9.843602E-3,-3.5061013E-2,-7.6923952E-3,-3.3197545E-2,3.4229506E-2,-2.6728366E-2],"categories":[],"categories_nodes":[],"categories_segments":[],"categories_sizes":[],"default_left":[0,0,0,0,0,0,0,0,0,0,0,0,0,0,0,0,0,0,0,0,0,0,0,0,0,0,0,0,0,0,0,0,0],"id":3,"left_children":[1,3,5,7,9,11,-1,13,15,17,-1,19,-1,21,23,-1,-1,25,27,29,31,-1,-1,-1,-1,-1,-1,-1,-1,-1,-1,-1,-1],"loss_changes":[4.7515338E2,7.0102325E2,1.862976E1,1.5486584E2,5.638336E0,4.2777016E1,0E0,1.5908142E1,6.2495613E-1,9.629272E0,0E0,1.3365723E1,0E0,1.6816072E0,4.264038E0,0E0,0E0,3.9396434E0,2.850504E-1,5.4130554E-1,4.6136E0,0E0,0E0,0E0,0E0,0E0,0E0,0E0,0E0,0E0,0E0,0E0,0E0],"parents":[2147483647,0,0,1,1,2,2,3,3,4,4,5,5,7,7,8,8,9,9,11,11,13,13,14,14,17,17,18,18,19,19,20,20],"right_children":[2,4,6,8,10,12,-1,14,16,18,-1,20,-1,22,24,-1,-1,26,28,30,32,-1,-1,-1,-1,-1,-1,-1,-1,-1,-1,-1,-1],"split_conditions":[1.4030531E-1,2.4443434E-1,2.2536342E-1,3.9092946E-1,3.0355313E-1,2.0390423E-1,-3.634687E-2,1.6047312E-1,3.9566287E-1,2.3927352E-1,-3.651871E-2,2.3575623E-1,-3.643899E-2,8.78979E-2,3.3064085E-1,-5.063332E-5,-3.4825075E-2,2.4145803E-1,3.2531837E-1,1.3074444E-1,3.4035906E-1,1.9270113E-2,-2.2453455E-2,6.521228E-2,3.0082826E-2,-1.8177174E-2,4.053224E-2,-9.843602E-3,-3.5061013E-2,-7.6923952E-3,-3.3197545E-2,3.4229506E-2,-2.6728366E-2],"split_indices":[3,2,3,1,2,2,0,0,1,1,0,0,0,2,1,0,0,0,1,1,1,0,0,0,0,0,0,0,0,0,0,0,0],"split_type":[0,0,0,0,0,0,0,0,0,0,0,0,0,0,0,0,0,0,0,0,0,0,0,0,0,0,0,0,0,0,0,0,0],"sum_hessian":[1.597966E3,9.219283E2,6.7603766E2,5.8729816E2,3.3463013E2,1.5497932E2,5.210583E2,5.436645E2,4.3633633E1,3.309691E1,3.0153323E2,5.7354446E1,9.7624886E1,8.02051E0,5.35644E2,1.3347645E0,4.229887E1,1.1267852E1,2.1829058E1,1.2339373E1,4.501507E1,3.153617E0,4.8668933E0,5.2435706E2,1.1286936E1,3.5456433E0,7.7222085E0,2.1966078E0,1.9632448E1,3.5803905E0,8.758983E0,4.2392086E1,2.6229875E0],"tree_param":{"num_deleted":"0","num_feature":"4","num_nodes":"33","size_leaf_vector":"1"}},{"base_weights":[-3.1909316E-5,-6.263435E-1,1.3320545E0,-6.6325575E-1,-6.986085E-2,1.3734167E0,-5.112605E-1,-6.8419254E-1,-4.975251E-1,6.595863E-1,-6.9099903E-1,1.382732E0,-2.5472773E-2,2.1076437E-2,-3.3439606E-2,-1.2125328E-1,-6.8820864E-1,-1.08474806E-1,-7.0137316E-1,8.542812E-1,-2.941664E-2,1.103418E-5,-3.5818394E-2,-1.2125724E-5,6.932209E-2,2.6863573E-2,-2.9410252E-2,-3.236162E-2,-3.5951596E-2,9.538304E-3,-1.3869706E-2,-1.5838904E-2,-3.5654105E-2,3.0633533E-2,5.658708E-2],"categories":[],"categories_nodes":[],"categories_segments":[],"categories_sizes":[],"default_left":[0,0,0,0,0,0,0,0,0,0,0,0,0,0,0,0,0,0,0,0,0,0,0,0,0,0,0,0,0,0,0,0,0,0,0],"id":4,"left_children":[1,3,5,7,9,11,13,15,17,19,21,23,-1,-1,-1,25,27,29,31,33,-1,-1,-1,-1,-1,-1,-1,-1,-1,-1,-1,-1,-1,-1,-1],"loss_changes":[1.3348674E3,2.230835E1,3.9715027E1,3.200531E0,3.1635149E1,9.486938E0,2.039143E0,1.9589233E0,9.291935E0,8.316312E0,6.6046333E-1,2.5581055E0,0E0,0E0,0E0,2.6569822E0,6.671753E-1,2.1655848E0,1.223259E-1,1.1989136E0,0E0,0E0,0E0,0E0,0E0,0E0,0E0,0E0,0E0,0E0,0E0,0E0,0E0,0E0,0E0],"parents":[2147483647,0,0,1,1,2,2,3,3,4,4,5,5,6,6,7,7,8,8,9,9,10,10,11,11,15,15,16,16,17,17,18,18,19,19],"right_children":[2,4,6,8,10,12,14,16,18,20,22,24,-1,-1,-1,26,28,30,32,34,-1,-1,-1,-1,-1,-1,-1,-1,-1,-1,-1,-1,-1,-1,-1],"split_conditions":[2.6166338E-1,1.9738421E-1,3.9426515E-1,1.4320232E-1,2.6227033E-1,4.2559305E-1,1.912712E-1,-1.601947E-1,2.8147787E-1,4.0125006E-1,3.391961E-2,-1.0973337E-2,-2.5472773E-2,2.1076437E-2,-3.3439606E-2,2.5680792E-1,1.8073173E-1,8.063905E-2,4.217879E-2,1.0692508E-1,-2.941664E-2,1.103418E-5,-3.5818394E-2,-1.2125724E-5,6.932209E-2,2.6863573E-2,-2.9410252E-2,-3.236162E-2,-3.5951596E-2,9.538304E-3,-1.3869706E-2,-1.5838904E-2,-3.5654105E-2,3.0633533E-2,5.658708E-2],"split_indices":[3,3,2,3,1,1,1,3,1,2,2,0,0,0,0,1,1,2,2,2,0,0,0,0,0,0,0,0,0,0,0,0,0,0,0],"split_type":[0,0,0,0,0,0,0,0,0,0,0,0,0,0,0,0,0,0,0,0,0,0,0,0,0,0,0,0,0,0,0,0,0,0,0],"sum_hessian":[1.5979827E3,1.0872952E3,5.1068747E2,1.0194798E3,6.781535E1,4.9972897E2,1.09585E1,9.023566E2,1.17123215E2,3.1160015E1,3.6655342E1,4.975331E2,2.1958647E0,1.3411773E0,9.617322E0,6.6128836E0,8.957437E2,4.0795635E1,7.6327576E1,2.722753E1,3.932485E0,1.3327756E0,3.5322563E1,1.3335361E0,4.9619955E2,2.681156E0,3.9317274E0,3.9398343E2,5.0176028E2,1.4673019E1,2.6122616E1,3.0839887E0,7.324359E1,1.6268862E1,1.0958668E1],"tree_param":{"num_deleted":"0","num_feature":"4","num_nodes":"35","size_leaf_vector":"1"}},{"base_weights":[5.881631E-5,-5.655327E-1,1.2747128E0,-6.926305E-1,1.169342E0,1.3091259E0,-5.6058276E-1,3.372122E-1,-7.0650697E-1,1.3359525E0,-5.110984E-1,8.996042E-1,6.914114E-2,-3.249568E-2,1.785964E-4,1.1298343E0,-3.1708892E-2,-7.138551E-1,-2.280189E-1,6.871926E-2,7.47315E-1,1.7136813E-4,-3.1045085E-2,-7.1106665E-2,1.2977103E0,2.0214275E-2,6.070239E-2,-2.7901074E-2,-3.6290523E-2,2.5809575E-2,-3.350125E-2,-6.1858497E-3,5.5367865E-2,3.262623E-2,-3.0787319E-2,6.659237E-2,-8.9752924E-4],"categories":[],"categories_nodes":[],"categories_segments":[],"categories_sizes":[],"default_left":[0,0,0,0,0,0,0,0,0,0,0,0,0,0,0,0,0,0,0,0,0,0,0,0,0,0,0,0,0,0,0,0,0,0,0,0,0],"id":5,"left_children":[1,3,5,7,9,11,13,15,17,19,21,23,-1,-1,-1,25,-1,27,29,-1,31,-1,-1,33,35,-1,-1,-1,-1,-1,-1,-1,-1,-1,-1,-1,-1],"loss_changes":[1.1533418E3,2.451449E2,3.1788025E1,1.50017395E1,2.196421E1,1.3331421E1,4.9368596E-1,1.1813007E1,3.4223633E0,5.436325E-1,4.3035722E-1,2.9661541E1,0E0,0E0,0E0,1.6059875E-2,0E0,1.4650879E0,5.9022884E0,0E0,2.1588745E0,0E0,0E0,9.546088E0,2.4633026E0,0E0,0E0,0E0,0E0,0E0,0E0,0E0,0E0,0E0,0E0,0E0,0E0],"parents":[2147483647,0,0,1,1,2,2,3,3,4,4,5,5,6,6,7,7,8,8,9,9,10,10,11,11,15,15,17,17,18,18,20,20,23,23,24,24],"right_children":[2,4,6,8,10,12,14,16,18,20,22,24,-1,-1,-1,26,-1,28,30,-1,32,-1,-1,34,36,-1,-1,-1,-1,-1,-1,-1,-1,-1,-1,-1,-1],"split_conditions":[3.1465825E-1,3.331551E-1,3.726497E-1,1.1844873E-1,2.7969095E-1,3.9092946E-1,2.2439612E-1,3.21164E-1,2.8789845E-1,3.6349562E-1,3.5013658E-1,2.0725419E-1,6.914114E-2,-3.249568E-2,1.785964E-4,1.0692508E-1,-3.1708892E-2,2.0721586E-1,1.935037E-1,6.871926E-2,4.0125006E-1,1.7136813E-4,-3.1045085E-2,2.9535067E-1,2.7969095E-1,2.0214275E-2,6.070239E-2,-2.7901074E-2,-3.6290523E-2,2.5809575E-2,-3.350125E-2,-6.1858497E-3,5.5367865E-2,3.262623E-2,-3.0787319E-2,6.659237E-2,-8.9752924E-4],"split_indices":[1,2,3,0,3,1,2,3,2,0,3,2,0,0,0,2,0,0,3,0,2,0,0,0,3,0,0,0,0,0,0,0,0,0,0,0,0],"split_type":[0,0,0,0,0,0,0,0,0,0,0,0,0,0,0,0,0,0,0,0,0,0,0,0,0,0,0,0,0,0,0,0,0,0,0,0,0],"sum_hessian":[1.5977897E3,1.1071013E3,4.9068845E2,1.0320906E3,7.501072E1,4.8193845E2,8.749982E0,1.3412052E1,1.01867847E3,6.843099E1,6.5797234E0,7.551592E1,4.0642252E2,7.422634E0,1.327348E0,7.2958055E0,6.1162467E0,1.00278687E3,1.5891636E1,6.2983856E1,5.447136E0,1.3275872E0,5.2521358E0,2.220191E1,5.3314014E1,1.3620092E0,5.9337964E0,7.484795E1,9.279389E2,5.858976E0,1.003266E1,1.7850462E0,3.6620896E0,9.449208E0,1.2752701E1,5.1953686E1,1.3603301E0],"tree_param":{"num_deleted":"0","num_feature":"4","num_nodes":"37","size_leaf_vector":"1"}},{"base_weights":[-6.88065E-5,4.4532222E-1,-6.2315315E-1,1.05697E0,-6.741431E-1,-3.1948185E-1,-7.1365225E-1,1.1897255E0,-6.6220903E-1,-2.7681947E-1,-3.58614E-2,4.2012292E-1,-6.7099196E-1,-5.984049E-1,-3.6056425E-2,-1.17827885E-1,1.2090164E0,2.311013E-4,-3.415768E-2,4.1756314E-1,-6.485942E-1,6.202094E-1,-5.425285E-1,-3.2278174E-1,-3.576983E-2,-6.7621994E-1,2.2396695E-2,1.8312166E-2,-2.2254812E-2,6.1074097E-2,2.8594831E-2,-1.8042358E-2,3.841656E-2,-3.446102E-2,-9.143005E-3,8.233982E-3,4.7822263E-2,-4.4859425E-4,-3.1646E-2,6.637273E-3,-3.187164E-2,-1.6933693E-2,-3.5120394E-2],"categories":[],"categories_nodes":[],"categories_segments":[],"categories_sizes":[],"default_left":[0,0,0,0,0,0,0,0,0,0,0,0,0,0,0,0,0,0,0,0,0,0,0,0,0,0,0,0,0,0,0,0,0,0,0,0,0,0,0,0,0,0,0],"id":6,"left_children":[1,3,5,7,9,11,13,15,17,19,-1,21,23,25,-1,27,29,-1,-1,31,33,35,37,39,-1,41,-1,-1,-1,-1,-1,-1,-1,-1,-1,-1,-1,-1,-1,-1,-1,-1,-1],"loss_changes":[4.4236835E2,6.372004E2,1.8032806E1,1.3807135E2,5.434326E0,4.0414196E1,8.850098E-3,1.4236267E1,6.143532E-1,9.001398E0,0E0,1.0033722E1,1.392952E0,3.3164463E0,0E0,1.5943226E0,3.675232E0,0E0,0E0,3.6633186E0,2.9814053E-1,6.2981987E0,4.3788218E-1,2.048283E0,0E0,7.015896E-2,0E0,0E0,0E0,0E0,0E0,0E0,0E0,0E0,0E0,0E0,0E0,0E0,0E0,0E0,0E0,0E0,0E0],"parents":[2147483647,0,0,1,1,2,2,3,3,4,4,5,5,6,6,7,7,8,8,9,9,11,11,12,12,13,13,15,15,16,16,19,19,20,20,21,21,22,22,23,23,25,25],"right_children":[2,4,6,8,10,12,14,16,18,20,-1,22,24,26,-1,28,30,-1,-1,32,34,36,38,40,-1,42,-1,-1,-1,-1,-1,-1,-1,-1,-1,-1,-1,-1,-1,-1,-1,-1,-1],"split_conditions":[1.4030531E-1,2.4443434E-1,2.2536342E-1,3.9092946E-1,3.0355313E-1,2.2109985E-1,2.6166338E-1,1.6047312E-1,3.9566287E-1,2.3927352E-1,-3.58614E-2,1.9677944E-1,1.7453608E-1,4.0734923E-1,-3.6056425E-2,8.78979E-2,3.3064085E-1,2.311013E-4,-3.415768E-2,2.4145803E-1,3.2129773E-1,3.1755993E-1,2.0390423E-1,3.4035906E-1,-3.576983E-2,7.3474124E-2,2.2396695E-2,1.8312166E-2,-2.2254812E-2,6.1074097E-2,2.8594831E-2,-1.8042358E-2,3.841656E-2,-3.446102E-2,-9.143005E-3,8.233982E-3,4.7822263E-2,-4.4859425E-4,-3.1646E-2,6.637273E-3,-3.187164E-2,-1.6933693E-2,-3.5120394E-2],"split_indices":[3,2,3,1,2,1,3,0,1,1,0,2,2,0,0,2,1,0,0,0,0,0,2,1,0,1,0,0,0,0,0,0,0,0,0,0,0,0,0,0,0,0,0],"split_type":[0,0,0,0,0,0,0,0,0,0,0,0,0,0,0,0,0,0,0,0,0,0,0,0,0,0,0,0,0,0,0,0,0,0,0,0,0,0,0,0,0,0,0],"sum_hessian":[1.5920271E3,9.285614E2,6.6346576E2,6.005123E2,3.2804907E2,1.5336774E2,5.1009802E2,5.577506E2,4.2761696E1,3.2819244E1,2.9522983E2,4.9345577E1,1.0402216E2,3.601192E1,4.7408612E2,8.034834E0,5.497158E2,1.3259351E0,4.143576E1,1.1401298E1,2.1417946E1,4.1148598E1,8.196981E0,1.270012E1,9.132204E1,3.384838E1,2.1635401E0,3.1929564E0,4.841877E0,5.382672E2,1.1448607E1,3.5327737E0,7.8685236E0,1.9258184E1,2.1597614E0,1.810706E1,2.3041538E1,1.3467472E0,6.8502345E0,5.4247327E0,7.2753873E0,3.4400933E0,3.0408287E1],"tree_param":{"num_deleted":"0","num_feature":"4","num_nodes":"43","size_leaf_vector":"1"}},{"base_weights":[-2.1839243E-5,-6.1328226E-1,1.2482126E0,-6.5003943E-1,-6.710752E-2,1.2859126E0,-5.004555E-1,-6.709249E-1,-4.8565787E-1,6.2818843E-1,-6.783053E-1,1.2944181E0,-2.4973987E-2,2.0410357E-2,-3.2874208E-2,-1.1200814E-1,-6.749636E-1,-1.05545335E-1,-6.883362E-1,8.1046844E-1,-2.8857592E-2,3.568264E-5,-3.5185542E-2,-1.08873486E-4,6.4890675E-2,2.6480144E-2,-2.8835276E-2,-3.152574E-2,-3.5172258E-2,-4.369101E-4,-3.0937066E-2,-1.5472578E-2,-3.500002E-2,2.9069055E-2,5.3635437E-2],"categories":[],"categories_nodes":[],"categories_segments":[],"categories_sizes":[],"default_left":[0,0,0,0,0,0,0,0,0,0,0,0,0,0,0,0,0,0,0,0,0,0,0,0,0,0,0,0,0,0,0,0,0,0,0],"id":7,"left_children":[1,3,5,7,9,11,13,15,17,19,21,23,-1,-1,-1,25,27,29,31,33,-1,-1,-1,-1,-1,-1,-1,-1,-1,-1,-1,-1,-1,-1,-1],"loss_changes":[1.2202083E3,2.1414917E1,3.5263306E1,3.112091E0,2.954194E1,8.457031E0,1.9524531E0,1.9240112E0,8.903095E0,7.623914E0,6.377945E-1,2.2577515E0,0E0,0E0,0E0,2.5577323E0,6.696472E-1,2.0662365E0,1.1840439E-1,1.1010265E0,0E0,0E0,0E0,0E0,0E0,0E0,0E0,0E0,0E0,0E0,0E0,0E0,0E0,0E0,0E0],"parents":[2147483647,0,0,1,1,2,2,3,3,4,4,5,5,6,6,7,7,8,8,9,9,10,10,11,11,15,15,16,16,17,17,18,18,19,19],"right_children":[2,4,6,8,10,12,14,16,18,20,22,24,-1,-1,-1,26,28,30,32,34,-1,-1,-1,-1,-1,-1,-1,-1,-1,-1,-1,-1,-1,-1,-1],"split_conditions":[2.6166338E-1,1.9738421E-1,3.9426515E-1,1.4320232E-1,2.6227033E-1,4.2559305E-1,1.912712E-1,-1.601947E-1,2.8147787E-1,4.0125006E-1,3.391961E-2,-1.0973337E-2,-2.4973987E-2,2.0410357E-2,-3.2874208E-2,2.5680792E-1,1.6389759E-1,3.4836453E-1,4.217879E-2,1.0692508E-1,-2.8857592E-2,3.568264E-5,-3.5185542E-2,-1.08873486E-4,6.4890675E-2,2.6480144E-2,-2.8835276E-2,-3.152574E-2,-3.5172258E-2,-4.369101E-4,-3.0937066E-2,-1.5472578E-2,-3.500002E-2,2.9069055E-2,5.3635437E-2],"split_indices":[3,3,2,3,1,1,1,3,1,2,2,0,0,0,0,1,1,2,2,2,0,0,0,0,0,0,0,0,0,0,0,0,0,0,0],"split_type":[0,0,0,0,0,0,0,0,0,0,0,0,0,0,0,0,0,0,0,0,0,0,0,0,0,0,0,0,0,0,0,0,0,0,0],"sum_hessian":[1.5920166E3,1.0678756E3,5.2414105E2,1.0003618E3,6.7513756E1,5.133385E2,1.080257E1,8.8485504E2,1.1550673E2,3.1570967E1,3.594279E1,5.1117825E2,2.1602156E0,1.356054E0,9.446516E0,6.5541506E0,8.783009E2,4.0698875E1,7.480785E1,2.770832E1,3.862646E0,1.3313498E0,3.4611443E1,1.336083E0,5.0984216E2,2.694358E0,3.8597927E0,3.5203876E2,5.2626215E2,3.5095615E1,5.603262E0,3.056429E0,7.175142E1,1.6506008E1,1.1202312E1],"tree_param":{"num_deleted":"0","num_feature":"4","num_nodes":"35","size_leaf_vector":"1"}},{"base_weights":[9.0643734E-5,-5.531223E-1,1.195783E0,-6.794905E-1,1.1005254E0,1.2271837E0,-5.4855865E-1,3.2771125E-1,-6.933775E-1,1.2425957E0,-3.0930007E-2,8.5087204E-1,6.4711064E-2,-3.1877518E-2,2.0233775E-4,5.3856988E-2,-3.1134436E-2,-7.007238E-1,-2.2114557E-1,5.6421256E-1,1.2665355E0,-6.8268605E-2,1.2173015E0,-2.725528E-2,-3.5636183E-2,2.4631076E-2,-3.287538E-2,4.2747643E-2,-1.3850484E-3,6.452199E-2,3.3170175E-2,3.1493418E-2,-3.028788E-2,6.242391E-2,-8.555958E-4],"categories":[],"categories_nodes":[],"categories_segments":[],"categories_sizes":[],"default_left":[0,0,0,0,0,0,0,0,0,0,0,0,0,0,0,0,0,0,0,0,0,0,0,0,0,0,0,0,0,0,0,0,0,0,0],"id":8,"left_children":[1,3,5,7,9,11,13,15,17,19,-1,21,-1,-1,-1,-1,-1,23,25,27,29,31,33,-1,-1,-1,-1,-1,-1,-1,-1,-1,-1,-1,-1],"loss_changes":[1.0540698E3,2.284104E2,2.8282349E1,1.4392334E1,1.9752083E1,1.1397644E1,4.7490168E-1,1.09645605E1,3.3117676E0,4.567337E-1,0E0,2.6298252E1,0E0,0E0,0E0,0E0,0E0,1.4480591E0,5.5466256E0,7.5711703E-1,1.3674164E-1,9.061873E0,2.1651077E0,0E0,0E0,0E0,0E0,0E0,0E0,0E0,0E0,0E0,0E0,0E0,0E0],"parents":[2147483647,0,0,1,1,2,2,3,3,4,4,5,5,6,6,7,7,8,8,9,9,11,11,17,17,18,18,19,19,20,20,21,21,22,22],"right_children":[2,4,6,8,10,12,14,16,18,20,-1,22,-1,-1,-1,-1,-1,24,26,28,30,32,34,-1,-1,-1,-1,-1,-1,-1,-1,-1,-1,-1,-1],"split_conditions":[3.1465825E-1,3.331551E-1,3.726497E-1,1.1844873E-1,2.9163313E-1,3.9092946E-1,2.2439612E-1,3.21164E-1,2.8789845E-1,3.53673E-1,-3.0930007E-2,2.0725419E-1,6.4711064E-2,-3.1877518E-2,2.0233775E-4,5.3856988E-2,-3.1134436E-2,2.0721586E-1,1.935037E-1,1.7115831E-1,2.3908353E-1,2.9535067E-1,2.7969095E-1,-2.725528E-2,-3.5636183E-2,2.4631076E-2,-3.287538E-2,4.2747643E-2,-1.3850484E-3,6.452199E-2,3.3170175E-2,3.1493418E-2,-3.028788E-2,6.242391E-2,-8.555958E-4],"split_indices":[1,2,3,0,3,1,2,3,2,2,0,2,0,0,0,0,0,0,3,0,3,0,3,0,0,0,0,0,0,0,0,0,0,0,0],"split_type":[0,0,0,0,0,0,0,0,0,0,0,0,0,0,0,0,0,0,0,0,0,0,0,0,0,0,0,0,0,0,0,0,0,0,0],"sum_hessian":[1.5915204E3,1.0884587E3,5.0306155E2,1.0117334E3,7.672542E1,4.944571E2,8.604454E0,1.3452424E1,9.9828094E2,7.112478E1,5.6006355E0,7.6835915E1,4.176212E2,7.2785907E0,1.3258636E0,7.446895E0,6.005529E0,9.8251245E2,1.5768475E1,3.2618442E0,6.786294E1,2.2132673E1,5.470324E1,7.366215E1,9.0885034E2,5.9336853E0,9.834789E0,1.889405E0,1.3724391E0,6.41797E1,3.6832366E0,9.5528E0,1.2579872E1,5.3344563E1,1.3586758E0],"tree_param":{"num_deleted":"0","num_feature":"4","num_nodes":"35","size_leaf_vector":"1"}},{"base_weights":[-1.0593521E-4,4.26093E-1,-6.1070436E-1,9.9815077E-1,-6.6180277E-1,-3.104156E-1,-7.0117426E-1,1.1202462E0,-6.4931005E-1,-2.7016175E-1,-7.048199E-1,3.233139E-1,-3.517565E-2,-5.8698547E-1,-3.5430714E-2,-1.2107209E-1,1.1382298E0,5.1711843E-4,-3.3523507E-2,3.9499867E-1,-6.364142E-1,-3.5409283E-2,-4.082408E-1,-5.2309185E-1,5.5158055E-1,-6.65151E-1,2.1944052E-2,1.7404787E-2,-2.2067484E-2,5.748732E-2,2.7219286E-2,-1.7920159E-2,3.6481388E-2,-3.3869576E-2,-8.696473E-3,1.8921377E-3,-2.7374256E-2,-8.13536E-3,-3.2167323E-2,3.1197716E-2,-2.5762534E-2,-1.6568353E-2,-3.4565356E-2],"categories":[],"categories_nodes":[],"categories_segments":[],"categories_sizes":[],"default_left":[0,0,0,0,0,0,0,0,0,0,0,0,0,0,0,0,0,0,0,0,0,0,0,0,0,0,0,0,0,0,0,0,0,0,0,0,0,0,0,0,0,0,0],"id":9,"left_children":[1,3,5,7,9,11,13,15,17,19,21,23,-1,25,-1,27,29,-1,-1,31,33,-1,35,37,39,41,-1,-1,-1,-1,-1,-1,-1,-1,-1,-1,-1,-1,-1,-1,-1,-1,-1],"loss_changes":[4.1233328E2,5.8138403E2,1.7477005E1,1.238197E2,5.2374115E0,3.824077E1,8.605957E-3,1.286438E1,6.0513496E-1,8.414215E0,4.5776367E-5,1.1707306E1,0E0,3.210328E0,0E0,1.5128038E0,3.2179565E0,0E0,0E0,3.4167228E0,2.98954E-1,0E0,3.6927682E-1,4.6160913E-1,3.9530725E0,6.964302E-2,0E0,0E0,0E0,0E0,0E0,0E0,0E0,0E0,0E0,0E0,0E0,0E0,0E0,0E0,0E0,0E0,0E0],"parents":[2147483647,0,0,1,1,2,2,3,3,4,4,5,5,6,6,7,7,8,8,9,9,10,10,11,11,13,13,15,15,16,16,19,19,20,20,22,22,23,23,24,24,25,25],"right_children":[2,4,6,8,10,12,14,16,18,20,22,24,-1,26,-1,28,30,-1,-1,32,34,-1,36,38,40,42,-1,-1,-1,-1,-1,-1,-1,-1,-1,-1,-1,-1,-1,-1,-1,-1,-1],"split_conditions":[1.4030531E-1,2.4443434E-1,2.2536342E-1,3.9092946E-1,3.0355313E-1,2.0390423E-1,2.6166338E-1,1.6047312E-1,3.9566287E-1,2.3927352E-1,4.136169E-1,2.3575623E-1,-3.517565E-2,4.0734923E-1,-3.5430714E-2,8.78979E-2,3.3064085E-1,5.1711843E-4,-3.3523507E-2,2.4145803E-1,3.2129773E-1,-3.5409283E-2,4.678683E-1,1.3074444E-1,3.4035906E-1,7.3474124E-2,2.1944052E-2,1.7404787E-2,-2.2067484E-2,5.748732E-2,2.7219286E-2,-1.7920159E-2,3.6481388E-2,-3.3869576E-2,-8.696473E-3,1.8921377E-3,-2.7374256E-2,-8.13536E-3,-3.2167323E-2,3.1197716E-2,-2.5762534E-2,-1.6568353E-2,-3.4565356E-2],"split_indices":[3,2,3,1,2,2,3,0,1,1,0,0,0,0,0,2,1,0,0,0,0,0,2,1,1,1,0,0,0,0,0,0,0,0,0,0,0,0,0,0,0,0,0],"split_type":[0,0,0,0,0,0,0,0,0,0,0,0,0,0,0,0,0,0,0,0,0,0,0,0,0,0,0,0,0,0,0,0,0,0,0,0,0,0,0,0,0,0,0],"sum_hessian":[1.5824567E3,9.3213007E2,6.5032654E2,6.109509E2,3.2117917E2,1.5159193E2,4.987346E2,5.690946E2,4.185629E1,3.2506878E1,2.886723E2,5.81015E1,9.349044E1,3.539481E1,4.6333978E2,8.045232E0,5.610494E2,1.3168101E0,4.053948E1,1.1515251E1,2.0991627E1,2.8406076E2,4.6115394E0,1.2066758E1,4.6034744E1,3.321558E1,2.1792288E0,3.2287083E0,4.816523E0,5.494576E2,1.1591823E1,3.5197194E0,7.9955316E0,1.8856237E1,2.1353896E0,1.2702835E0,3.3412561E0,3.6077886E0,8.458969E0,4.3498913E1,2.5358295E0,3.4069955E0,2.9808584E1],"tree_param":{"num_deleted":"0","num_feature":"4","num_nodes":"43","size_leaf_vector":"1"}},{"base_weights":[-8.169483E-7,-6.0077363E-1,1.1758587E0,-6.3740706E-1,-6.394879E-2,1.2075065E0,-3.2087397E-2,-6.5827453E-1,-4.7415838E-1,6.007306E-1,-6.6625166E-1,1.2183994E0,-1.8916714E-1,-1.02833994E-1,-6.6234183E-1,-1.02406465E-1,-6.7602164E-1,7.7253944E-1,-2.8357912E-2,6.7305446E-5,-3.458692E-2,-1.1006929E-4,6.107639E-2,-2.6177052E-2,1.973163E-2,2.612024E-2,-2.8280571E-2,-3.0885074E-2,-3.4550946E-2,9.23803E-3,-1.3336885E-2,-1.511271E-2,-3.4383513E-2,2.773033E-2,5.1064324E-2],"categories":[],"categories_nodes":[],"categories_segments":[],"categories_sizes":[],"default_left":[0,0,0,0,0,0,0,0,0,0,0,0,0,0,0,0,0,0,0,0,0,0,0,0,0,0,0,0,0,0,0,0,0,0,0],"id":10,"left_children":[1,3,5,7,9,11,-1,13,15,17,19,21,23,25,27,29,31,33,-1,-1,-1,-1,-1,-1,-1,-1,-1,-1,-1,-1,-1,-1,-1,-1,-1],"loss_changes":[1.1192709E3,2.0581573E1,3.1594482E1,3.0316162E0,2.7663448E1,8.2473755E0,0E0,1.8921814E0,8.547358E0,7.0395966E0,6.168804E-1,1.9998779E0,1.1716272E0,2.4631515E0,6.756592E-1,2.0117457E0,1.1536026E-1,1.0113125E0,0E0,0E0,0E0,0E0,0E0,0E0,0E0,0E0,0E0,0E0,0E0,0E0,0E0,0E0,0E0,0E0,0E0],"parents":[2147483647,0,0,1,1,2,2,3,3,4,4,5,5,7,7,8,8,9,9,10,10,11,11,12,12,13,13,14,14,15,15,16,16,17,17],"right_children":[2,4,6,8,10,12,-1,14,16,18,20,22,24,26,28,30,32,34,-1,-1,-1,-1,-1,-1,-1,-1,-1,-1,-1,-1,-1,-1,-1,-1,-1],"split_conditions":[2.6166338E-1,1.9738421E-1,4.2559305E-1,1.4320232E-1,2.6227033E-1,3.9426515E-1,-3.2087397E-2,-1.601947E-1,2.8147787E-1,4.0125006E-1,3.391961E-2,-1.0973337E-2,3.2907584E-1,2.5680792E-1,1.6389759E-1,8.063905E-2,4.217879E-2,1.0692508E-1,-2.8357912E-2,6.7305446E-5,-3.458692E-2,-1.1006929E-4,6.107639E-2,-2.6177052E-2,1.973163E-2,2.612024E-2,-2.8280571E-2,-3.0885074E-2,-3.4550946E-2,9.23803E-3,-1.3336885E-2,-1.511271E-2,-3.4383513E-2,2.773033E-2,5.1064324E-2],"split_indices":[3,3,1,3,1,2,0,3,1,2,2,0,3,1,1,2,2,2,0,0,0,0,0,0,0,0,0,0,0,0,0,0,0,0,0],"split_type":[0,0,0,0,0,0,0,0,0,0,0,0,0,0,0,0,0,0,0,0,0,0,0,0,0,0,0,0,0,0,0,0,0,0,0],"sum_hessian":[1.582417E3,1.0476423E3,5.347747E2,9.805419E2,6.7100426E1,5.259526E2,8.822121E0,8.6672E2,1.1382187E2,3.1899698E1,3.5200726E1,5.2200903E2,3.943568E0,6.49162E0,8.602284E2,4.058596E1,7.32359E1,2.8103842E1,3.795857E0,1.3292639E0,3.3871464E1,1.3352884E0,5.206737E2,2.5730565E0,1.3705114E0,2.7063456E0,3.7852745E0,3.4528244E2,5.149459E2,1.4726771E1,2.585919E1,3.0278864E0,7.0208015E1,1.6701172E1,1.140267E1],"tree_param":{"num_deleted":"0","num_feature":"4","num_nodes":"35","size_leaf_vector":"1"}},{"base_weights":[1.0677155E-4,-5.4146254E-1,1.127592E0,-6.670675E-1,1.0403534E0,1.1564995E0,-5.369978E-1,3.1797683E-1,-6.809609E-1,1.1717838E0,-3.039361E-2,7.838357E-1,6.0718276E-2,3.738176E-4,-3.1309225E-2,1.0274131E0,-3.0585025E-2,-6.8831384E-1,-2.1441577E-1,6.021812E-2,6.63005E-1,-3.968504E-2,1.1699497E0,1.8680843E-2,5.512028E-2,-2.6622517E-2,-3.5019953E-2,2.355021E-2,-3.227884E-2,-7.011473E-3,4.966854E-2,3.3120427E-2,-2.6906451E-2,5.9335925E-2,1.7941467E-2],"categories":[],"categories_nodes":[],"categories_segments":[],"categories_sizes":[],"default_left":[0,0,0,0,0,0,0,0,0,0,0,0,0,0,0,0,0,0,0,0,0,0,0,0,0,0,0,0,0,0,0,0,0,0,0],"id":11,"left_children":[1,3,5,7,9,11,13,15,17,19,-1,21,-1,-1,-1,23,-1,25,27,-1,29,31,33,-1,-1,-1,-1,-1,-1,-1,-1,-1,-1,-1,-1],"loss_changes":[9.66901E2,2.1322403E2,2.5345093E1,1.3787231E1,1.7843483E1,9.945862E0,4.6373987E-1,1.017416E1,3.2078857E0,4.2115784E-1,0E0,2.2540955E1,0E0,0E0,0E0,8.900642E-3,0E0,1.440094E0,5.218384E0,0E0,1.9047127E0,8.597343E0,2.2969818E-1,0E0,0E0,0E0,0E0,0E0,0E0,0E0,0E0,0E0,0E0,0E0,0E0],"parents":[2147483647,0,0,1,1,2,2,3,3,4,4,5,5,6,6,7,7,8,8,9,9,11,11,15,15,17,17,18,18,20,20,21,21,22,22],"right_children":[2,4,6,8,10,12,14,16,18,20,-1,22,-1,-1,-1,24,-1,26,28,-1,30,32,34,-1,-1,-1,-1,-1,-1,-1,-1,-1,-1,-1,-1],"split_conditions":[3.1465825E-1,3.331551E-1,3.726497E-1,1.1844873E-1,2.9163313E-1,1.8757328E-1,1.6047312E-1,3.21164E-1,2.8789845E-1,3.6349562E-1,-3.039361E-2,3.9566287E-1,6.0718276E-2,3.738176E-4,-3.1309225E-2,1.0692508E-1,-3.0585025E-2,2.0721586E-1,1.935037E-1,6.021812E-2,4.0125006E-1,2.6630026E-1,2.6166338E-1,1.8680843E-2,5.512028E-2,-2.6622517E-2,-3.5019953E-2,2.355021E-2,-3.227884E-2,-7.011473E-3,4.966854E-2,3.3120427E-2,-2.6906451E-2,5.9335925E-2,1.7941467E-2],"split_indices":[1,2,3,0,3,2,0,3,2,0,0,1,0,0,0,2,0,0,3,0,2,0,3,0,0,0,0,0,0,0,0,0,0,0,0],"split_type":[0,0,0,0,0,0,0,0,0,0,0,0,0,0,0,0,0,0,0,0,0,0,0,0,0,0,0,0,0,0,0,0,0,0,0],"sum_hessian":[1.5814966E3,1.0686888E3,5.128077E2,9.906074E2,7.808146E1,5.0435422E2,8.453456E0,1.3473105E1,9.7713434E2,7.258273E1,5.4987273E0,6.974354E1,4.346107E2,1.3187596E0,7.134697E0,7.5820885E0,5.891017E0,9.615053E2,1.5629024E1,6.692986E1,5.6528673E0,2.2548449E1,4.719509E1,1.3957522E0,6.186336E0,7.24299E1,8.890754E2,5.9993696E0,9.629654E0,1.8151463E0,3.8377209E0,9.225179E0,1.3323269E1,4.578548E1,1.4096111E0],"tree_param":{"num_deleted":"0","num_feature":"4","num_nodes":"35","size_leaf_vector":"1"}},{"base_weights":[-1.7365652E-4,3.9565086E-1,-6.1937845E-1,9.44682E-1,-6.5243554E-1,-3.4286943E-1,-6.8942165E-1,1.0582563E0,-6.3856333E-1,-2.841341E-1,-6.934634E-1,1.9735672E-1,-3.451857E-2,-5.760177E-1,-3.484238E-2,-1.2382207E-1,1.0748795E0,4.8644512E-4,-3.2970216E-2,3.7415496E-1,-6.299377E-1,-3.4834437E-2,-3.9854378E-1,-1.898524E-1,6.575692E-1,-6.5461713E-1,2.1518137E-2,1.6557641E-2,-2.1867195E-2,3.948422E-2,5.4888006E-2,-1.7781971E-2,3.4704518E-2,-8.657653E-3,-3.3397254E-2,2.1595026E-3,-2.6928473E-2,-3.2378886E-2,3.5351694E-3,3.8107645E-2,-1.0944923E-2,-1.617371E-2,-3.404325E-2],"categories":[],"categories_nodes":[],"categories_segments":[],"categories_sizes":[],"default_left":[0,0,0,0,0,0,0,0,0,0,0,0,0,0,0,0,0,0,0,0,0,0,0,0,0,0,0,0,0,0,0,0,0,0,0,0,0,0,0,0,0,0,0],"id":12,"left_children":[1,3,5,7,9,11,13,15,17,19,21,23,-1,25,-1,27,29,-1,-1,31,33,-1,35,37,39,41,-1,-1,-1,-1,-1,-1,-1,-1,-1,-1,-1,-1,-1,-1,-1,-1,-1],"loss_changes":[3.8519446E2,5.523036E2,1.1633408E1,1.1388165E2,4.7920227E0,2.3763704E1,9.567261E-3,1.1683472E1,5.8418274E-1,8.154719E0,4.272461E-3,9.042833E0,0E0,3.1102839E0,0E0,1.4355005E0,2.9162598E0,0E0,0E0,3.190662E0,2.8676987E-1,0E0,3.6612087E-1,3.379693E0,2.283455E0,7.149887E-2,0E0,0E0,0E0,0E0,0E0,0E0,0E0,0E0,0E0,0E0,0E0,0E0,0E0,0E0,0E0,0E0,0E0],"parents":[2147483647,0,0,1,1,2,2,3,3,4,4,5,5,6,6,7,7,8,8,9,9,10,10,11,11,13,13,15,15,16,16,19,19,20,20,22,22,23,23,24,24,25,25],"right_children":[2,4,6,8,10,12,14,16,18,20,22,24,-1,26,-1,28,30,-1,-1,32,34,-1,36,38,40,42,-1,-1,-1,-1,-1,-1,-1,-1,-1,-1,-1,-1,-1,-1,-1,-1,-1],"split_conditions":[1.5065208E-1,2.4443434E-1,2.2536342E-1,3.9092946E-1,3.0355313E-1,2.0390423E-1,2.6166338E-1,1.6047312E-1,3.9566287E-1,2.3927352E-1,4.136169E-1,3.1755993E-1,-3.451857E-2,4.0734923E-1,-3.484238E-2,8.78979E-2,2.3846921E-1,4.8644512E-4,-3.2970216E-2,2.4145803E-1,3.2531837E-1,-3.4834437E-2,4.3539953E-1,2.2298396E-1,1.814128E-1,7.3474124E-2,2.1518137E-2,1.6557641E-2,-2.1867195E-2,3.948422E-2,5.4888006E-2,-1.7781971E-2,3.4704518E-2,-8.657653E-3,-3.3397254E-2,2.1595026E-3,-2.6928473E-2,-3.2378886E-2,3.5351694E-3,3.8107645E-2,-1.0944923E-2,-1.617371E-2,-3.404325E-2],"split_indices":[3,2,3,1,2,2,3,0,1,1,0,0,0,0,0,2,0,0,0,0,1,0,0,0,2,1,0,0,0,0,0,0,0,0,0,0,0,0,0,0,0,0,0],"split_type":[0,0,0,0,0,0,0,0,0,0,0,0,0,0,0,0,0,0,0,0,0,0,0,0,0,0,0,0,0,0,0,0,0,0,0,0,0,0,0,0,0,0,0],"sum_hessian":[1.5696038E3,9.577356E2,6.1186816E2,6.2856555E2,3.2917004E2,1.2485895E2,4.8700922E2,5.868028E2,4.1762787E1,3.378769E1,2.9538235E2,4.904528E1,7.581367E1,3.4758877E1,4.5225034E2,8.048174E0,5.787546E2,1.3173599E0,4.0445427E1,1.1608047E1,2.2179642E1,2.9083932E2,4.543046E0,2.6954247E1,2.2091032E1,3.256504E1,2.1938334E0,3.2604525E0,4.787721E0,4.5621216E1,5.3313336E2,3.5038745E0,8.104172E0,2.1304915E0,2.004915E1,1.2599345E0,3.2831116E0,9.238811E0,1.7715437E1,1.9852571E1,2.2384617E0,3.3702185E0,2.9194822E1],"tree_param":{"num_deleted":"0","num_feature":"4","num_nodes":"43","size_leaf_vector":"1"}},{"base_weights":[5.634689E-5,-5.887881E-1,1.1130469E0,-6.253198E-1,-6.061165E-2,1.1423824E0,-3.1543806E-2,-6.462117E-1,-4.6292305E-1,5.76247E-1,-6.5483266E-1,1.1525164E0,-1.8497574E-1,-9.3831256E-2,-6.50313E-1,-9.9175595E-2,-6.642931E-1,7.3833245E-1,-2.7828336E-2,9.0493566E-5,-3.4021683E-2,-1.9462756E-4,5.777207E-2,1.9316014E-2,-2.5823224E-2,2.578188E-2,-2.77495E-2,-3.0439714E-2,-3.4089148E-2,8.980743E-3,-1.3008694E-2,-3.3844773E-2,-1.5257098E-2,2.6505202E-2,4.8786752E-2],"categories":[],"categories_nodes":[],"categories_segments":[],"categories_sizes":[],"default_left":[0,0,0,0,0,0,0,0,0,0,0,0,0,0,0,0,0,0,0,0,0,0,0,0,0,0,0,0,0,0,0,0,0,0,0],"id":13,"left_children":[1,3,5,7,9,11,-1,13,15,17,19,21,23,25,27,29,31,33,-1,-1,-1,-1,-1,-1,-1,-1,-1,-1,-1,-1,-1,-1,-1,-1,-1],"loss_changes":[1.0299099E3,1.979242E1,2.8537659E1,2.9617615E0,2.5956818E1,7.411072E0,0E0,1.8625793E0,8.217003E0,6.4991255E0,5.9691906E-1,1.8012085E0,1.1305158E0,2.3734396E0,6.859131E-1,1.9080899E0,1.220932E-1,9.3795586E-1,0E0,0E0,0E0,0E0,0E0,0E0,0E0,0E0,0E0,0E0,0E0,0E0,0E0,0E0,0E0,0E0,0E0],"parents":[2147483647,0,0,1,1,2,2,3,3,4,4,5,5,7,7,8,8,9,9,10,10,11,11,12,12,13,13,14,14,15,15,16,16,17,17],"right_children":[2,4,6,8,10,12,-1,14,16,18,20,22,24,26,28,30,32,34,-1,-1,-1,-1,-1,-1,-1,-1,-1,-1,-1,-1,-1,-1,-1,-1,-1],"split_conditions":[2.6166338E-1,1.9738421E-1,4.2559305E-1,1.4320232E-1,2.6227033E-1,3.9426515E-1,-3.1543806E-2,-1.601947E-1,2.8147787E-1,4.0125006E-1,3.391961E-2,-1.0973337E-2,1.912712E-1,2.5680792E-1,1.8073173E-1,8.063905E-2,3.6796618E-1,1.0692508E-1,-2.7828336E-2,9.0493566E-5,-3.4021683E-2,-1.9462756E-4,5.777207E-2,1.9316014E-2,-2.5823224E-2,2.578188E-2,-2.77495E-2,-3.0439714E-2,-3.4089148E-2,8.980743E-3,-1.3008694E-2,-3.3844773E-2,-1.5257098E-2,2.6505202E-2,4.8786752E-2],"split_indices":[3,3,1,3,1,2,0,3,1,2,2,0,1,1,1,2,0,2,0,0,0,0,0,0,0,0,0,0,0,0,0,0,0,0,0],"split_type":[0,0,0,0,0,0,0,0,0,0,0,0,0,0,0,0,0,0,0,0,0,0,0,0,0,0,0,0,0,0,0,0,0,0,0],"sum_hessian":[1.569474E3,1.0267352E3,5.427387E2,9.601424E2,6.659281E1,5.340993E2,8.639431E0,8.480622E2,1.1208019E2,3.215781E1,3.4435005E1,5.301832E2,3.916063E0,6.4263577E0,8.4163586E2,4.0469707E1,7.161048E1,2.8437185E1,3.720623E0,1.3270352E0,3.310797E1,1.3368312E0,5.2884644E2,1.3771822E0,2.5388808E0,2.717184E0,3.7091737E0,3.716532E2,4.6998264E2,1.477286E1,2.569685E1,6.832819E1,3.2822921E0,1.6871735E1,1.1565451E1],"tree_param":{"num_deleted":"0","num_feature":"4","num_nodes":"35","size_leaf_vector":"1"}},{"base_weights":[1.17422984E-4,-5.304929E-1,1.0681561E0,-6.5531313E-1,9.875868E-1,1.0949527E0,-5.2535063E-1,3.0983675E-1,-6.692214E-1,1.110039E0,-2.987723E-2,7.6706904E-1,5.7629656E-2,-3.0742927E-2,5.327385E-4,4.9217958E-2,-3.0057454E-2,-6.7658395E-1,-2.0823114E-1,5.0483954E-1,1.1313607E0,-6.32577E-2,1.0842514E0,-2.6012806E-2,-3.443898E-2,2.2489844E-2,-3.170991E-2,3.902696E-2,-2.3024427E-3,5.760184E-2,3.0132895E-2,2.9584303E-2,-2.9415885E-2,5.5607926E-2,-1.6257301E-3],"categories":[],"categories_nodes":[],"categories_segments":[],"categories_sizes":[],"default_left":[0,0,0,0,0,0,0,0,0,0,0,0,0,0,0,0,0,0,0,0,0,0,0,0,0,0,0,0,0,0,0,0,0,0,0],"id":14,"left_children":[1,3,5,7,9,11,13,15,17,19,-1,21,-1,-1,-1,-1,-1,23,25,27,29,31,33,-1,-1,-1,-1,-1,-1,-1,-1,-1,-1,-1,-1],"loss_changes":[8.897611E2,1.9940497E2,2.2827087E1,1.3225952E1,1.620929E1,8.807861E0,4.5244455E-1,9.477596E0,3.105133E0,3.927307E-1,0E0,2.1048878E1,0E0,0E0,0E0,0E0,0E0,1.4354858E0,4.9042816E0,6.962991E-1,8.568573E-2,8.245178E0,1.8343811E0,0E0,0E0,0E0,0E0,0E0,0E0,0E0,0E0,0E0,0E0,0E0,0E0],"parents":[2147483647,0,0,1,1,2,2,3,3,4,4,5,5,6,6,7,7,8,8,9,9,11,11,17,17,18,18,19,19,20,20,21,21,22,22],"right_children":[2,4,6,8,10,12,14,16,18,20,-1,22,-1,-1,-1,-1,-1,24,26,28,30,32,34,-1,-1,-1,-1,-1,-1,-1,-1,-1,-1,-1,-1],"split_conditions":[3.1465825E-1,3.331551E-1,3.726497E-1,1.1844873E-1,2.9163313E-1,3.9092946E-1,2.2439612E-1,3.21164E-1,2.8789845E-1,3.53673E-1,-2.987723E-2,2.0725419E-1,5.7629656E-2,-3.0742927E-2,5.327385E-4,4.9217958E-2,-3.0057454E-2,2.0721586E-1,1.935037E-1,1.7115831E-1,2.3908353E-1,2.9535067E-1,2.7969095E-1,-2.6012806E-2,-3.443898E-2,2.2489844E-2,-3.170991E-2,3.902696E-2,-2.3024427E-3,5.760184E-2,3.0132895E-2,2.9584303E-2,-2.9415885E-2,5.5607926E-2,-1.6257301E-3],"split_indices":[1,2,3,0,3,1,2,3,2,2,0,2,0,0,0,0,0,0,3,0,3,0,3,0,0,0,0,0,0,0,0,0,0,0,0],"split_type":[0,0,0,0,0,0,0,0,0,0,0,0,0,0,0,0,0,0,0,0,0,0,0,0,0,0,0,0,0,0,0,0,0,0,0],"sum_hessian":[1.5680399E3,1.0479254E3,5.2011456E2,9.6883386E2,7.9091545E1,5.1182062E2,8.293957E0,1.3460755E1,9.553731E2,7.369805E1,5.3934937E0,7.866243E1,4.3315817E2,6.981071E0,1.3128864E0,7.6878715E0,5.7728834E0,9.3989417E2,1.5478951E1,3.3478875E0,7.035017E1,2.196432E1,5.6698112E1,7.117685E1,8.687173E2,6.0606303E0,9.418322E0,1.9534051E0,1.3944824E0,6.656788E1,3.78229E0,9.716884E0,1.2247436E1,5.531983E1,1.3782792E0],"tree_param":{"num_deleted":"0","num_feature":"4","num_nodes":"35","size_leaf_vector":"1"}},{"base_weights":[-2.2389695E-4,3.8050896E-1,-6.0818183E-1,8.9881706E-1,-6.414464E-1,-3.3402893E-1,-6.783718E-1,1.0045656E0,-6.26807E-1,-2.776236E-1,-6.8247783E-1,1.8911476E-1,-3.3972815E-2,-5.6547785E-1,-3.429026E-2,-1.2660667E-1,1.0203083E0,7.682947E-4,-3.2397028E-2,3.544805E-1,-6.187818E-1,-3.4286376E-2,-3.886055E-1,-3.191639E-2,3.8735148E-1,-6.445968E-1,2.1116674E-2,1.5751578E-2,-2.1677427E-2,5.1531345E-2,2.4066322E-2,-1.7659264E-2,3.3066906E-2,-8.4667755E-3,-3.284181E-2,2.3411203E-3,-2.6450804E-2,3.281307E-3,3.148527E-2,-1.5808607E-2,-3.354785E-2],"categories":[],"categories_nodes":[],"categories_segments":[],"categories_sizes":[],"default_left":[0,0,0,0,0,0,0,0,0,0,0,0,0,0,0,0,0,0,0,0,0,0,0,0,0,0,0,0,0,0,0,0,0,0,0,0,0,0,0,0,0],"id":15,"left_children":[1,3,5,7,9,11,13,15,17,19,21,23,-1,25,-1,27,29,-1,-1,31,33,-1,35,-1,37,39,-1,-1,-1,-1,-1,-1,-1,-1,-1,-1,-1,-1,-1,-1,-1],"loss_changes":[3.60106E2,5.0729834E2,1.1301666E1,1.0309888E2,4.6248474E0,2.2552235E1,1.1657715E-2,1.0713318E1,5.770645E-1,7.631277E0,9.643555E-3,8.470326E0,0E0,3.0158997E0,0E0,1.3630809E0,2.7646484E0,0E0,0E0,2.9878788E0,2.7679634E-1,0E0,3.5920888E-1,0E0,3.1605606E0,7.267189E-2,0E0,0E0,0E0,0E0,0E0,0E0,0E0,0E0,0E0,0E0,0E0,0E0,0E0,0E0,0E0],"parents":[2147483647,0,0,1,1,2,2,3,3,4,4,5,5,6,6,7,7,8,8,9,9,10,10,11,11,13,13,15,15,16,16,19,19,20,20,22,22,24,24,25,25],"right_children":[2,4,6,8,10,12,14,16,18,20,22,24,-1,26,-1,28,30,-1,-1,32,34,-1,36,-1,38,40,-1,-1,-1,-1,-1,-1,-1,-1,-1,-1,-1,-1,-1,-1,-1],"split_conditions":[1.5065208E-1,2.4443434E-1,2.2536342E-1,3.9092946E-1,3.0355313E-1,2.0390423E-1,2.6166338E-1,1.6047312E-1,3.9566287E-1,2.3927352E-1,4.136169E-1,2.2298396E-1,-3.3972815E-2,4.0734923E-1,-3.429026E-2,8.78979E-2,3.3064085E-1,7.682947E-4,-3.2397028E-2,2.4145803E-1,3.2531837E-1,-3.4286376E-2,4.678683E-1,-3.191639E-2,3.1755993E-1,7.3474124E-2,2.1116674E-2,1.5751578E-2,-2.1677427E-2,5.1531345E-2,2.4066322E-2,-1.7659264E-2,3.3066906E-2,-8.4667755E-3,-3.284181E-2,2.3411203E-3,-2.6450804E-2,3.281307E-3,3.148527E-2,-1.5808607E-2,-3.354785E-2],"split_indices":[3,2,3,1,2,2,3,0,1,1,0,0,0,0,0,2,1,0,0,0,1,0,2,0,0,1,0,0,0,0,0,0,0,0,0,0,0,0,0,0,0],"split_type":[0,0,0,0,0,0,0,0,0,0,0,0,0,0,0,0,0,0,0,0,0,0,0,0,0,0,0,0,0,0,0,0,0,0,0,0,0,0,0,0,0],"sum_hessian":[1.5537382E3,9.556424E2,5.980957E2,6.341428E2,3.2149957E2,1.2308813E2,4.7500757E2,5.9335596E2,4.0786884E1,3.337059E1,2.8812897E2,4.9131645E1,7.395648E1,3.410561E1,4.4090198E2,8.047833E0,5.853081E2,1.3082066E0,3.9478676E1,1.1683724E1,2.1686867E1,2.836588E2,4.470172E0,9.066775E0,4.006487E1,3.1898169E1,2.20744E0,3.2890632E0,4.75877E0,5.7341815E2,1.1889981E1,3.488251E0,8.195474E0,2.118294E0,1.9568573E1,1.2525173E0,3.2176547E0,1.7759665E1,2.2305202E1,3.3354683E0,2.85627E1],"tree_param":{"num_deleted":"0","num_feature":"4","num_nodes":"41","size_leaf_vector":"1"}},{"base_weights":[1.1860846E-4,-5.7730323E-1,1.0579982E0,-6.137115E-1,-5.800287E-2,1.0853416E0,-3.0996291E-2,-6.3403404E-1,-4.4681308E-1,5.518545E-1,-6.4396775E-1,1.0949044E0,-1.8399414E-1,-8.504619E-2,-6.3814026E-1,-1.1516682E-2,-6.2100524E-1,7.052128E-1,-2.7364135E-2,1.2284161E-4,-3.3486363E-2,-1.8563094E-4,5.4882504E-2,-2.5566027E-2,1.8728219E-2,2.5431981E-2,-2.7232457E-2,-2.9565955E-2,-3.3418097E-2,1.0421502E-2,-1.3823338E-2,-1.951066E-2,-3.3930983E-2,2.531452E-2,4.6598267E-2],"categories":[],"categories_nodes":[],"categories_segments":[],"categories_sizes":[],"default_left":[0,0,0,0,0,0,0,0,0,0,0,0,0,0,0,0,0,0,0,0,0,0,0,0,0,0,0,0,0,0,0,0,0,0,0],"id":16,"left_children":[1,3,5,7,9,11,-1,13,15,17,19,21,23,25,27,29,31,33,-1,-1,-1,-1,-1,-1,-1,-1,-1,-1,-1,-1,-1,-1,-1,-1,-1],"loss_changes":[9.5016187E2,1.898944E1,2.5872131E1,2.9057617E0,2.4309185E1,6.765991E0,0E0,1.8298035E0,7.988323E0,6.0132675E0,5.785656E-1,1.6235352E0,1.0873785E0,2.2849102E0,7.7838135E-1,1.8732045E0,7.363281E-1,8.693228E-1,0E0,0E0,0E0,0E0,0E0,0E0,0E0,0E0,0E0,0E0,0E0,0E0,0E0,0E0,0E0,0E0,0E0],"parents":[2147483647,0,0,1,1,2,2,3,3,4,4,5,5,7,7,8,8,9,9,10,10,11,11,12,12,13,13,14,14,15,15,16,16,17,17],"right_children":[2,4,6,8,10,12,-1,14,16,18,20,22,24,26,28,30,32,34,-1,-1,-1,-1,-1,-1,-1,-1,-1,-1,-1,-1,-1,-1,-1,-1,-1],"split_conditions":[2.6166338E-1,1.9738421E-1,4.2559305E-1,1.4588441E-1,2.6227033E-1,3.9426515E-1,-3.0996291E-2,-1.601947E-1,1.473784E-1,4.0125006E-1,3.391961E-2,-1.0973337E-2,2.2672391E-1,2.5680792E-1,1.6389759E-1,3.2981148E-1,3.1358212E-1,1.0692508E-1,-2.7364135E-2,1.2284161E-4,-3.3486363E-2,-1.8563094E-4,5.4882504E-2,-2.5566027E-2,1.8728219E-2,2.5431981E-2,-2.7232457E-2,-2.9565955E-2,-3.3418097E-2,1.0421502E-2,-1.3823338E-2,-1.951066E-2,-3.3930983E-2,2.531452E-2,4.6598267E-2],"split_indices":[3,3,1,3,1,2,0,3,2,2,2,0,0,1,1,0,2,2,0,0,0,0,0,0,0,0,0,0,0,0,0,0,0,0,0],"split_type":[0,0,0,0,0,0,0,0,0,0,0,0,0,0,0,0,0,0,0,0,0,0,0,0,0,0,0,0,0,0,0,0,0,0,0],"sum_hessian":[1.5534935E3,1.0052518E3,5.4824176E2,9.3922095E2,6.6030846E1,5.397984E2,8.443382E0,8.3477484E2,1.0444608E2,3.23843E1,3.3646545E1,5.3589844E2,3.8999147E0,6.3586526E0,8.284162E2,3.0155447E1,7.4290634E1,2.8733606E1,3.6506922E0,1.3240728E0,3.232247E1,1.3350627E0,5.345634E2,2.512255E0,1.3876599E0,2.7280447E0,3.6306078E0,3.3303073E2,4.953855E2,1.659365E1,1.3561796E1,1.6393652E1,5.7896984E1,1.7028164E1,1.1705444E1],"tree_param":{"num_deleted":"0","num_feature":"4","num_nodes":"35","size_leaf_vector":"1"}},{"base_weights":[1.05505096E-4,-5.201864E-1,1.016144E0,-6.4421976E-1,9.4129366E-1,1.0411712E0,-5.144668E-1,3.0170932E-1,-6.581415E-1,1.0561184E0,-2.93797E-2,7.3407775E-1,5.4742068E-2,7.1859104E-4,-3.0220727E-2,9.4381106E-1,-2.9550677E-2,-6.655223E-1,-2.021195E-1,5.4287292E-2,5.9565365E-1,-5.7164144E-2,1.0309743E0,1.733441E-2,5.0607722E-2,-2.5439817E-2,-3.3891812E-2,2.1516906E-2,-3.1166092E-2,-7.6520867E-3,4.522276E-2,2.8797498E-2,-2.8850136E-2,5.2858163E-2,-1.5481607E-3],"categories":[],"categories_nodes":[],"categories_segments":[],"categories_sizes":[],"default_left":[0,0,0,0,0,0,0,0,0,0,0,0,0,0,0,0,0,0,0,0,0,0,0,0,0,0,0,0,0,0,0,0,0,0,0],"id":17,"left_children":[1,3,5,7,9,11,13,15,17,19,-1,21,-1,-1,-1,23,-1,25,27,-1,29,31,33,-1,-1,-1,-1,-1,-1,-1,-1,-1,-1,-1,-1],"loss_changes":[8.2122485E2,1.8684158E2,2.0688843E1,1.2677521E1,1.4801346E1,7.7332153E0,4.431324E-1,8.8292055E0,3.0097046E0,3.8316345E-1,0E0,1.8873802E1,0E0,0E0,0E0,7.3251724E-3,0E0,1.4284058E0,4.614454E0,0E0,1.7057321E0,7.8362947E0,1.6538811E0,0E0,0E0,0E0,0E0,0E0,0E0,0E0,0E0,0E0,0E0,0E0,0E0],"parents":[2147483647,0,0,1,1,2,2,3,3,4,4,5,5,6,6,7,7,8,8,9,9,11,11,15,15,17,17,18,18,20,20,21,21,22,22],"right_children":[2,4,6,8,10,12,14,16,18,20,-1,22,-1,-1,-1,24,-1,26,28,-1,30,32,34,-1,-1,-1,-1,-1,-1,-1,-1,-1,-1,-1,-1],"split_conditions":[3.1465825E-1,3.331551E-1,3.726497E-1,1.1844873E-1,2.9163313E-1,3.9092946E-1,1.6047312E-1,3.21164E-1,2.8789845E-1,3.6349562E-1,-2.93797E-2,2.0725419E-1,5.4742068E-2,7.1859104E-4,-3.0220727E-2,1.0692508E-1,-2.9550677E-2,2.0721586E-1,1.935037E-1,5.4287292E-2,4.0125006E-1,2.9535067E-1,2.7969095E-1,1.733441E-2,5.0607722E-2,-2.5439817E-2,-3.3891812E-2,2.1516906E-2,-3.1166092E-2,-7.6520867E-3,4.522276E-2,2.8797498E-2,-2.8850136E-2,5.2858163E-2,-1.5481607E-3],"split_indices":[1,2,3,0,3,1,0,3,2,0,0,2,0,0,0,2,0,0,3,0,2,0,3,0,0,0,0,0,0,0,0,0,0,0,0],"split_type":[0,0,0,0,0,0,0,0,0,0,0,0,0,0,0,0,0,0,0,0,0,0,0,0,0,0,0,0,0,0,0,0,0,0,0],"sum_hessian":[1.5514769E3,1.0263783E3,5.250987E2,9.466011E2,7.977722E1,5.169655E2,8.133187E0,1.3429741E1,9.331713E2,7.449185E1,5.28537E0,7.909158E1,4.378739E2,1.3043878E0,6.8287992E0,7.7780538E0,5.6516867E0,9.1785626E2,1.5315072E1,6.871276E1,5.7790856E0,2.1800303E1,5.729128E1,1.422476E0,6.355578E0,6.994558E1,8.479107E2,6.113555E0,9.201517E0,1.8348517E0,3.9442337E0,9.780562E0,1.2019739E1,5.591678E1,1.3744981E0],"tree_param":{"num_deleted":"0","num_feature":"4","num_nodes":"35","size_leaf_vector":"1"}},{"base_weights":[-2.8609237E-4,3.6665723E-1,-5.975195E-1,8.578141E-1,-6.310776E-1,-3.2536635E-1,-6.679563E-1,9.567749E-1,-6.155674E-1,-2.7138957E-1,-6.7214674E-1,1.8239732E-1,-3.346384E-2,-5.553148E-1,-3.377094E-2,-1.2910402E-1,9.7177786E-1,1.0530369E-3,-3.1851854E-2,3.3621815E-1,-6.081151E-1,-3.3771202E-2,-3.7927133E-1,-3.1400908E-2,3.7154818E-1,-6.35031E-1,2.0736478E-2,9.217213E-3,-2.7996078E-2,3.527895E-2,4.9659867E-2,-1.7521417E-2,3.1551216E-2,-8.268414E-3,-3.2314986E-2,2.576114E-3,-2.602307E-2,3.157216E-3,3.0101387E-2,-1.5418193E-2,-3.3080626E-2],"categories":[],"categories_nodes":[],"categories_segments":[],"categories_sizes":[],"default_left":[0,0,0,0,0,0,0,0,0,0,0,0,0,0,0,0,0,0,0,0,0,0,0,0,0,0,0,0,0,0,0,0,0,0,0,0,0,0,0,0,0],"id":18,"left_children":[1,3,5,7,9,11,13,15,17,19,21,23,-1,25,-1,27,29,-1,-1,31,33,-1,35,-1,37,39,-1,-1,-1,-1,-1,-1,-1,-1,-1,-1,-1,-1,-1,-1,-1],"loss_changes":[3.368634E2,4.6712958E2,1.0996826E1,9.368198E1,4.4658737E0,2.146571E1,1.4755249E-2,9.878784E0,5.709839E-1,7.1451893E0,1.4259338E-2,7.919505E0,0E0,2.9264984E0,0E0,1.3241812E0,2.666809E0,0E0,0E0,2.8001323E0,2.6815987E-1,0E0,3.5517472E-1,0E0,2.8962746E0,7.575226E-2,0E0,0E0,0E0,0E0,0E0,0E0,0E0,0E0,0E0,0E0,0E0,0E0,0E0,0E0,0E0],"parents":[2147483647,0,0,1,1,2,2,3,3,4,4,5,5,6,6,7,7,8,8,9,9,10,10,11,11,13,13,15,15,16,16,19,19,20,20,22,22,24,24,25,25],"right_children":[2,4,6,8,10,12,14,16,18,20,22,24,-1,26,-1,28,30,-1,-1,32,34,-1,36,-1,38,40,-1,-1,-1,-1,-1,-1,-1,-1,-1,-1,-1,-1,-1,-1,-1],"split_conditions":[1.5065208E-1,2.4443434E-1,2.2536342E-1,3.9092946E-1,3.0355313E-1,2.0390423E-1,2.6166338E-1,1.6047312E-1,3.9566287E-1,2.3927352E-1,4.136169E-1,2.2298396E-1,-3.346384E-2,4.0734923E-1,-3.377094E-2,2.2397354E-1,2.3846921E-1,1.0530369E-3,-3.1851854E-2,2.4145803E-1,3.2531837E-1,-3.3771202E-2,4.3539953E-1,-3.1400908E-2,3.1755993E-1,7.3474124E-2,2.0736478E-2,9.217213E-3,-2.7996078E-2,3.527895E-2,4.9659867E-2,-1.7521417E-2,3.1551216E-2,-8.268414E-3,-3.2314986E-2,2.576114E-3,-2.602307E-2,3.157216E-3,3.0101387E-2,-1.5418193E-2,-3.3080626E-2],"split_indices":[3,2,3,1,2,2,3,0,1,1,0,0,0,0,0,1,0,0,0,0,1,0,0,0,0,1,0,0,0,0,0,0,0,0,0,0,0,0,0,0,0],"split_type":[0,0,0,0,0,0,0,0,0,0,0,0,0,0,0,0,0,0,0,0,0,0,0,0,0,0,0,0,0,0,0,0,0,0,0,0,0,0,0,0,0],"sum_hessian":[1.5351309E3,9.5113477E2,5.839961E2,6.374676E2,3.1366718E2,1.2122541E2,4.6277066E2,5.976749E2,3.979268E1,3.292391E1,2.8074326E2,4.914109E1,7.208432E1,3.3439327E1,4.2933133E2,8.041557E0,5.8963336E2,1.298815E0,3.8493862E1,1.1740375E1,2.1183535E1,2.7634473E2,4.398537E0,8.860054E0,4.0281036E1,3.121916E1,2.2201662E0,4.9860106E0,3.0555468E0,4.643869E1,5.431947E2,3.4698691E0,8.270506E0,2.1051621E0,1.9078373E1,1.2425135E0,3.1560235E0,1.7773008E1,2.2508028E1,3.2973905E0,2.792177E1],"tree_param":{"num_deleted":"0","num_feature":"4","num_nodes":"41","size_leaf_vector":"1"}},{"base_weights":[1.9919728E-4,-5.662785E-1,1.0094985E0,-6.025752E-1,-5.538304E-2,1.0351403E0,-3.0472213E-2,-6.236542E-1,-4.4093716E-1,5.295393E-1,-6.3366E-1,1.0441965E0,-1.8134956E-1,-7.61267E-2,-6.2784004E-1,-8.913128E-2,-6.4309305E-1,6.7459565E-1,-2.686872E-2,1.5667728E-4,-3.2980785E-2,-2.5732478E-4,5.234031E-2,1.8310705E-2,-2.5280947E-2,2.5130717E-2,-2.6732562E-2,-2.9098814E-2,-3.2878917E-2,-5.76345E-5,-2.908872E-2,-3.280468E-2,-1.4116115E-2,2.4156854E-2,4.4677313E-2],"categories":[],"categories_nodes":[],"categories_segments":[],"categories_sizes":[],"default_left":[0,0,0,0,0,0,0,0,0,0,0,0,0,0,0,0,0,0,0,0,0,0,0,0,0,0,0,0,0,0,0,0,0,0,0],"id":19,"left_children":[1,3,5,7,9,11,-1,13,15,17,19,21,23,25,27,29,31,33,-1,-1,-1,-1,-1,-1,-1,-1,-1,-1,-1,-1,-1,-1,-1,-1,-1],"loss_changes":[8.786456E2,1.8219696E1,2.356482E1,2.855896E0,2.2793049E1,6.1848145E0,0E0,1.8097839E0,7.7248993E0,5.5551004E0,5.6141853E-1,1.4850464E0,1.050492E0,2.2025263E0,7.1417236E-1,1.7803775E0,1.399498E-1,8.250418E-1,0E0,0E0,0E0,0E0,0E0,0E0,0E0,0E0,0E0,0E0,0E0,0E0,0E0,0E0,0E0,0E0,0E0],"parents":[2147483647,0,0,1,1,2,2,3,3,4,4,5,5,7,7,8,8,9,9,10,10,11,11,12,12,13,13,14,14,15,15,16,16,17,17],"right_children":[2,4,6,8,10,12,-1,14,16,18,20,22,24,26,28,30,32,34,-1,-1,-1,-1,-1,-1,-1,-1,-1,-1,-1,-1,-1,-1,-1,-1,-1],"split_conditions":[2.6166338E-1,1.9738421E-1,4.2559305E-1,1.4320232E-1,2.6227033E-1,3.9426515E-1,-3.0472213E-2,-1.601947E-1,2.8147787E-1,4.0125006E-1,3.391961E-2,-1.0973337E-2,1.912712E-1,2.5680792E-1,1.6389759E-1,3.4836453E-1,3.6796618E-1,1.0692508E-1,-2.686872E-2,1.5667728E-4,-3.2980785E-2,-2.5732478E-4,5.234031E-2,1.8310705E-2,-2.5280947E-2,2.5130717E-2,-2.6732562E-2,-2.9098814E-2,-3.2878917E-2,-5.76345E-5,-2.908872E-2,-3.280468E-2,-1.4116115E-2,2.4156854E-2,4.4677313E-2],"split_indices":[3,3,1,3,1,2,0,3,1,2,2,0,1,1,1,2,0,2,0,0,0,0,0,0,0,0,0,0,0,0,0,0,0,0,0],"split_type":[0,0,0,0,0,0,0,0,0,0,0,0,0,0,0,0,0,0,0,0,0,0,0,0,0,0,0,0,0,0,0,0,0,0,0],"sum_hessian":[1.5347776E3,9.8331995E2,5.514576E2,9.1792615E2,6.539376E1,5.432144E2,8.243163E0,8.0950183E2,1.0842434E2,3.2551983E1,3.2841778E1,5.3934094E2,3.8734865E0,6.2872796E0,8.0321454E2,4.009285E1,6.833149E1,2.8979656E1,3.5723274E0,1.3206384E0,3.152114E1,1.3355857E0,5.380054E2,1.3925928E0,2.4808936E0,2.7367938E0,3.5504856E0,3.240383E2,4.7917624E2,3.4868248E1,5.224601E0,6.5164665E1,3.1668181E0,1.7171158E1,1.1808498E1],"tree_param":{"num_deleted":"0","num_feature":"4","num_nodes":"35","size_leaf_vector":"1"}},{"base_weights":[8.7138505E-5,-5.104902E-1,9.7012585E-1,-6.336732E-1,8.991941E-1,9.936367E-1,-5.039215E-1,-1.997999E-2,-6.552726E-1,1.0073715E0,-2.89003E-2,7.032895E-1,5.2209366E-2,7.61557E-4,-2.9698879E-2,6.130515E-1,-3.228658E-2,-6.5814596E-1,-8.9083456E-2,4.5362005E-1,1.0270587E0,-5.357255E-2,9.8380977E-1,-9.029327E-3,5.178819E-2,-3.349951E-2,-2.7478183E-2,3.5654802E-2,-2.6808172E-2,3.5924986E-2,-3.1408702E-3,5.228111E-2,2.7581338E-2,2.7966842E-2,-2.839007E-2,5.0420966E-2,-1.351812E-3],"categories":[],"categories_nodes":[],"categories_segments":[],"categories_sizes":[],"default_left":[0,0,0,0,0,0,0,0,0,0,0,0,0,0,0,0,0,0,0,0,0,0,0,0,0,0,0,0,0,0,0,0,0,0,0,0,0],"id":20,"left_children":[1,3,5,7,9,11,13,15,17,19,-1,21,-1,-1,-1,23,-1,25,27,29,31,33,35,-1,-1,-1,-1,-1,-1,-1,-1,-1,-1,-1,-1,-1,-1],"loss_changes":[7.59807E2,1.7510062E2,1.8834534E1,1.2246765E1,1.3555214E1,6.913208E0,4.2836547E-1,1.3260703E1,1.3948364E0,3.6273193E-1,0E0,1.7107533E1,0E0,0E0,0E0,5.775349E0,0E0,7.747803E-1,2.4149787E0,6.4710116E-1,6.401062E-2,7.4626117E0,1.4864655E0,0E0,0E0,0E0,0E0,0E0,0E0,0E0,0E0,0E0,0E0,0E0,0E0,0E0,0E0],"parents":[2147483647,0,0,1,1,2,2,3,3,4,4,5,5,6,6,7,7,8,8,9,9,11,11,15,15,17,17,18,18,19,19,20,20,21,21,22,22],"right_children":[2,4,6,8,10,12,14,16,18,20,-1,22,-1,-1,-1,24,-1,26,28,30,32,34,36,-1,-1,-1,-1,-1,-1,-1,-1,-1,-1,-1,-1,-1,-1],"split_conditions":[3.1465825E-1,3.331551E-1,3.726497E-1,1.5818574E-1,2.9163313E-1,3.9092946E-1,1.6047312E-1,3.21164E-1,3.0355313E-1,3.53673E-1,-2.89003E-2,2.0725419E-1,5.2209366E-2,7.61557E-4,-2.9698879E-2,1.3487346E-1,-3.228658E-2,1.9677944E-1,2.5956274E-3,1.7115831E-1,2.3908353E-1,2.9535067E-1,2.7969095E-1,-9.029327E-3,5.178819E-2,-3.349951E-2,-2.7478183E-2,3.5654802E-2,-2.6808172E-2,3.5924986E-2,-3.1408702E-3,5.228111E-2,2.7581338E-2,2.7966842E-2,-2.839007E-2,5.0420966E-2,-1.351812E-3],"split_indices":[1,2,3,0,3,1,0,3,2,2,0,2,0,0,0,2,0,2,3,0,3,0,3,0,0,0,0,0,0,0,0,0,0,0,0,0,0],"split_type":[0,0,0,0,0,0,0,0,0,0,0,0,0,0,0,0,0,0,0,0,0,0,0,0,0,0,0,0,0,0,0,0,0,0,0,0,0],"sum_hessian":[1.5320967E3,1.00407715E3,5.280196E2,9.2389453E2,8.0182594E1,5.200508E2,7.9688354E0,3.1477085E1,8.924175E2,7.500773E1,5.1748652E0,7.9327896E1,4.4072287E2,1.3008137E0,6.6680217E0,1.5657611E1,1.5819474E1,8.877498E2,4.667667E0,3.4005425E0,7.1607185E1,2.1669956E1,5.765794E1,5.640472E0,1.0017139E1,7.957759E2,9.197393E1,1.4575069E0,3.2101598E0,1.9890838E0,1.4114587E0,6.776207E1,3.8451147E0,9.84636E0,1.1823597E1,5.6289936E1,1.368007E0],"tree_param":{"num_deleted":"0","num_feature":"4","num_nodes":"37","size_leaf_vector":"1"}},{"base_weights":[-3.3839754E-4,3.5403112E-1,-5.873771E-1,8.210475E-1,-6.212929E-1,-3.169273E-1,-6.581647E-1,9.140705E-1,-6.0478646E-1,-2.661919E-1,-6.623647E-1,1.757504E-1,-3.2980494E-2,-5.456327E-1,-3.3283528E-2,-1.280892E-1,9.283786E-1,1.339544E-3,-3.1331763E-2,3.1705293E-1,-5.9806126E-1,-3.3284098E-2,-3.697451E-1,-3.0960623E-2,3.5702944E-1,-6.260099E-1,2.0374201E-2,1.4697175E-2,-2.1282448E-2,3.3561204E-2,4.7455445E-2,-1.73574E-2,2.9967422E-2,-3.196974E-2,-9.07429E-3,2.7776859E-3,-2.5580157E-2,2.9509426E-3,2.8937077E-2,-1.5061838E-2,-3.264113E-2],"categories":[],"categories_nodes":[],"categories_segments":[],"categories_sizes":[],"default_left":[0,0,0,0,0,0,0,0,0,0,0,0,0,0,0,0,0,0,0,0,0,0,0,0,0,0,0,0,0,0,0,0,0,0,0,0,0,0,0,0,0],"id":21,"left_children":[1,3,5,7,9,11,13,15,17,19,21,23,-1,25,-1,27,29,-1,-1,31,33,-1,35,-1,37,39,-1,-1,-1,-1,-1,-1,-1,-1,-1,-1,-1,-1,-1,-1,-1],"loss_changes":[3.153996E2,4.311439E2,1.0717377E1,8.540445E1,4.296631E0,2.0429672E1,1.8051147E-2,9.0798645E0,5.657568E-1,6.6674905E0,2.0050049E-2,7.447784E0,0E0,2.8422098E0,0E0,1.257554E0,2.5238953E0,0E0,0E0,2.606274E0,2.57195E-1,0E0,3.4958386E-1,0E0,2.705842E0,7.7983856E-2,0E0,0E0,0E0,0E0,0E0,0E0,0E0,0E0,0E0,0E0,0E0,0E0,0E0,0E0,0E0],"parents":[2147483647,0,0,1,1,2,2,3,3,4,4,5,5,6,6,7,7,8,8,9,9,10,10,11,11,13,13,15,15,16,16,19,19,20,20,22,22,24,24,25,25],"right_children":[2,4,6,8,10,12,14,16,18,20,22,24,-1,26,-1,28,30,-1,-1,32,34,-1,36,-1,38,40,-1,-1,-1,-1,-1,-1,-1,-1,-1,-1,-1,-1,-1,-1,-1],"split_conditions":[1.5065208E-1,2.4443434E-1,2.2536342E-1,3.9092946E-1,3.0355313E-1,2.0390423E-1,2.6166338E-1,1.6047312E-1,3.9566287E-1,2.3927352E-1,4.136169E-1,2.2298396E-1,-3.2980494E-2,4.0734923E-1,-3.3283528E-2,8.78979E-2,2.3846921E-1,1.339544E-3,-3.1331763E-2,2.4145803E-1,3.2129773E-1,-3.3284098E-2,2.2584245E-1,-3.0960623E-2,3.1755993E-1,7.3474124E-2,2.0374201E-2,1.4697175E-2,-2.1282448E-2,3.3561204E-2,4.7455445E-2,-1.73574E-2,2.9967422E-2,-3.196974E-2,-9.07429E-3,2.7776859E-3,-2.5580157E-2,2.9509426E-3,2.8937077E-2,-1.5061838E-2,-3.264113E-2],"split_indices":[3,2,3,1,2,2,3,0,1,1,0,0,0,0,0,2,0,0,0,0,0,0,1,0,0,1,0,0,0,0,0,0,0,0,0,0,0,0,0,0,0],"split_type":[0,0,0,0,0,0,0,0,0,0,0,0,0,0,0,0,0,0,0,0,0,0,0,0,0,0,0,0,0,0,0,0,0,0,0,0,0,0,0,0,0],"sum_hessian":[1.514136E3,9.44425E2,5.6971106E2,6.3873596E2,3.0568903E2,1.1931924E2,4.503918E2,5.9995325E2,3.878271E1,3.2466816E1,2.7322223E2,4.914712E1,7.017211E1,3.2770527E1,4.1762128E2,8.017661E0,5.919356E2,1.2892259E0,3.749349E1,1.1790396E1,2.0676418E1,2.68899E2,4.323247E0,8.677573E0,4.0469547E1,3.0538395E1,2.232132E0,3.3204205E0,4.6972404E0,4.6648724E1,5.4528687E2,3.4480038E0,8.342392E0,1.8323442E1,2.352977E0,1.2335066E0,3.0897403E0,1.7804338E1,2.2665209E1,3.2619867E0,2.7276407E1],"tree_param":{"num_deleted":"0","num_feature":"4","num_nodes":"41","size_leaf_vector":"1"}},{"base_weights":[2.834481E-4,-5.657493E-1,9.493888E-1,-5.9347546E-1,-1.3441618E-1,9.805773E-1,-3.0754972E-2,-6.130674E-1,-4.357777E-1,5.8497745E-1,-5.7972187E-1,9.9253887E-1,-2.768547E-1,-6.714363E-2,-6.173057E-1,-1.073291E-1,-6.306758E-1,6.528022E-1,-1.8297592E-2,-6.278784E-1,1.976067E-2,-7.0377514E-3,9.965287E-1,1.8946774E-2,-2.7525289E-2,2.4859635E-2,-2.6248781E-2,-2.8721014E-2,-3.250738E-2,-1.451732E-3,-2.812382E-2,-3.2228228E-2,-1.3635226E-2,4.5089033E-2,2.4654498E-2,1.9152553E-4,-3.262063E-2,2.939464E-2,5.0087303E-2],"categories":[],"categories_nodes":[],"categories_segments":[],"categories_sizes":[],"default_left":[0,0,0,0,0,0,0,0,0,0,0,0,0,0,0,0,0,0,0,0,0,0,0,0,0,0,0,0,0,0,0,0,0,0,0,0,0,0,0],"id":22,"left_children":[1,3,5,7,9,11,-1,13,15,17,19,21,23,25,27,29,31,33,-1,35,-1,-1,37,-1,-1,-1,-1,-1,-1,-1,-1,-1,-1,-1,-1,-1,-1,-1,-1],"loss_changes":[8.142223E2,1.1274292E1,2.8230743E1,2.488037E0,1.912269E1,8.630432E0,0E0,1.788208E0,6.4620914E0,1.7168822E0,1.9720707E0,2.6293945E0,1.2883441E0,2.1248496E0,7.3153687E-1,1.3803195E0,1.4148521E-1,4.202032E-1,0E0,5.507841E-1,0E0,0E0,5.809326E-1,0E0,0E0,0E0,0E0,0E0,0E0,0E0,0E0,0E0,0E0,0E0,0E0,0E0,0E0,0E0,0E0],"parents":[2147483647,0,0,1,1,2,2,3,3,4,4,5,5,7,7,8,8,9,9,10,10,11,11,12,12,13,13,14,14,15,15,16,16,17,17,19,19,22,22],"right_children":[2,4,6,8,10,12,-1,14,16,18,20,22,24,26,28,30,32,34,-1,36,-1,-1,38,-1,-1,-1,-1,-1,-1,-1,-1,-1,-1,-1,-1,-1,-1,-1,-1],"split_conditions":[2.4917383E-1,1.935037E-1,4.2559305E-1,1.4320232E-1,2.0354407E-1,3.9426515E-1,-3.0754972E-2,-1.601947E-1,2.8147787E-1,4.0125006E-1,4.0734923E-1,-1.0973337E-2,9.306812E-2,2.5680792E-1,1.8073173E-1,3.4836453E-1,3.6796618E-1,6.2055502E-2,-1.8297592E-2,3.391961E-2,1.976067E-2,-7.0377514E-3,2.6166338E-1,1.8946774E-2,-2.7525289E-2,2.4859635E-2,-2.6248781E-2,-2.8721014E-2,-3.250738E-2,-1.451732E-3,-2.812382E-2,-3.2228228E-2,-1.3635226E-2,4.5089033E-2,2.4654498E-2,1.9152553E-4,-3.262063E-2,2.939464E-2,5.0087303E-2],"split_indices":[3,3,1,3,1,2,0,3,1,2,0,0,1,1,1,2,0,1,0,2,0,0,3,0,0,0,0,0,0,0,0,0,0,0,0,0,0,0,0],"split_type":[0,0,0,0,0,0,0,0,0,0,0,0,0,0,0,0,0,0,0,0,0,0,0,0,0,0,0,0,0,0,0,0,0,0,0,0,0,0,0],"sum_hessian":[1.5136088E3,9.484004E2,5.652084E2,8.9076587E2,5.7634495E1,5.54527E2,1.0681408E1,7.897604E2,1.0100549E2,2.1915783E1,3.571871E1,5.4951025E2,5.016672E0,6.2137895E0,7.835466E2,3.819267E1,6.2812824E1,2.0749352E1,1.1664307E0,3.437667E1,1.3420427E0,1.8075297E0,5.4770276E2,1.3637582E0,3.652914E0,2.744666E0,3.4691234E0,3.4783255E2,4.3571405E2,3.34947E1,4.6979685E0,5.9696106E1,3.1167197E0,6.2929206E0,1.4456431E1,1.3167479E0,3.305992E1,8.337968E0,5.393648E2],"tree_param":{"num_deleted":"0","num_feature":"4","num_nodes":"39","size_leaf_vector":"1"}},{"base_weights":[5.5153756E-5,-5.013191E-1,9.2921025E-1,-6.2366956E-1,8.620061E-1,9.514139E-1,-4.937069E-1,-1.7508894E-2,-6.453493E-1,9.644644E-1,-2.8437927E-2,6.762257E-1,4.995829E-2,-2.9217262E-2,9.40298E-4,5.89818E-1,-3.1781685E-2,-6.5916204E-1,-5.057307E-1,4.9608532E-2,5.384924E-1,-4.8170306E-2,9.4171214E-1,-8.902224E-3,4.970708E-2,-2.7874464E-2,-3.322935E-2,-2.942433E-2,1.0841202E-2,-8.242312E-3,4.1600343E-2,2.7199794E-2,-2.7858717E-2,4.8255347E-2,-1.2714874E-3],"categories":[],"categories_nodes":[],"categories_segments":[],"categories_sizes":[],"default_left":[0,0,0,0,0,0,0,0,0,0,0,0,0,0,0,0,0,0,0,0,0,0,0,0,0,0,0,0,0,0,0,0,0,0,0],"id":23,"left_children":[1,3,5,7,9,11,13,15,17,19,-1,21,-1,-1,-1,23,-1,25,27,-1,29,31,33,-1,-1,-1,-1,-1,-1,-1,-1,-1,-1,-1,-1],"loss_changes":[7.044596E2,1.64371E2,1.7214355E1,1.184079E1,1.2467609E1,6.186371E0,4.1984844E-1,1.2451907E1,1.3458252E0,3.6557007E-1,0E0,1.5490063E1,0E0,0E0,0E0,5.3759766E0,0E0,6.4697266E-2,5.071661E0,0E0,1.5498661E0,7.0819383E0,1.3553734E0,0E0,0E0,0E0,0E0,0E0,0E0,0E0,0E0,0E0,0E0,0E0,0E0],"parents":[2147483647,0,0,1,1,2,2,3,3,4,4,5,5,6,6,7,7,8,8,9,9,11,11,15,15,17,17,18,18,20,20,21,21,22,22],"right_children":[2,4,6,8,10,12,14,16,18,20,-1,22,-1,-1,-1,24,-1,26,28,-1,30,32,34,-1,-1,-1,-1,-1,-1,-1,-1,-1,-1,-1,-1],"split_conditions":[3.1465825E-1,3.331551E-1,3.726497E-1,1.5818574E-1,2.9163313E-1,3.9092946E-1,2.2439612E-1,3.21164E-1,2.0390423E-1,3.6349562E-1,-2.8437927E-2,2.0725419E-1,4.995829E-2,-2.9217262E-2,9.40298E-4,1.3487346E-1,-3.1781685E-2,2.0721586E-1,2.5680792E-1,4.9608532E-2,4.0125006E-1,2.9535067E-1,2.7969095E-1,-8.902224E-3,4.970708E-2,-2.7874464E-2,-3.322935E-2,-2.942433E-2,1.0841202E-2,-8.242312E-3,4.1600343E-2,2.7199794E-2,-2.7858717E-2,4.8255347E-2,-1.2714874E-3],"split_indices":[1,2,3,0,3,1,2,3,2,0,0,2,0,0,0,2,0,0,1,0,2,0,3,0,0,0,0,0,0,0,0,0,0,0,0],"split_type":[0,0,0,0,0,0,0,0,0,0,0,0,0,0,0,0,0,0,0,0,0,0,0,0,0,0,0,0,0,0,0,0,0,0,0],"sum_hessian":[1.5101882E3,9.811941E2,5.289942E2,9.0088727E2,8.0306816E1,5.211927E2,7.801509E0,3.1170687E1,8.697166E2,7.524441E1,5.062407E0,7.9308426E1,4.4188425E2,6.510045E0,1.2914637E0,1.574577E1,1.5424915E1,7.88034E2,8.168256E1,6.94012E1,5.843213E0,2.1490053E1,5.7818375E1,5.624249E0,1.0121522E1,4.517349E1,7.4286053E2,7.345512E1,8.227447E0,1.8495564E0,3.9936569E0,9.901768E0,1.1588285E1,5.6454857E1,1.3635153E0],"tree_param":{"num_deleted":"0","num_feature":"4","num_nodes":"35","size_leaf_vector":"1"}},{"base_weights":[-3.8920884E-4,3.4240487E-1,-5.776881E-1,7.878684E-1,-6.120812E-1,-3.087111E-1,-6.4890814E-1,8.7566286E-1,-5.944524E-1,-2.6125416E-1,-6.531856E-1,1.6947864E-1,-3.252184E-2,-5.360474E-1,-3.2824684E-2,-1.2625736E-1,8.8935024E-1,1.6265316E-3,-3.0836094E-2,2.9841644E-1,-5.881037E-1,-3.282736E-2,-3.6071745E-1,-3.0536642E-2,3.4329882E-1,-6.1719E-1,2.0059483E-2,8.719951E-3,-2.7340755E-2,4.4948228E-2,1.9900266E-2,-1.7207712E-2,2.846202E-2,-7.6230797E-3,-3.1360317E-2,3.1105455E-3,-2.5203427E-2,2.758447E-3,2.7842907E-2,-1.4645263E-2,-3.221917E-2],"categories":[],"categories_nodes":[],"categories_segments":[],"categories_sizes":[],"default_left":[0,0,0,0,0,0,0,0,0,0,0,0,0,0,0,0,0,0,0,0,0,0,0,0,0,0,0,0,0,0,0,0,0,0,0,0,0,0,0,0,0],"id":24,"left_children":[1,3,5,7,9,11,13,15,17,19,21,23,-1,25,-1,27,29,-1,-1,31,33,-1,35,-1,37,39,-1,-1,-1,-1,-1,-1,-1,-1,-1,-1,-1,-1,-1,-1,-1],"loss_changes":[2.9545514E2,3.9878067E2,1.0455246E1,7.8084076E1,4.1358643E0,1.9450603E1,2.381897E-2,8.35907E0,5.6130123E-1,6.2096996E0,2.532959E-2,7.0069685E0,0E0,2.7641401E0,0E0,1.2308439E0,2.445282E0,0E0,0E0,2.427794E0,2.6485586E-1,0E0,3.4960848E-1,0E0,2.5308747E0,8.328533E-2,0E0,0E0,0E0,0E0,0E0,0E0,0E0,0E0,0E0,0E0,0E0,0E0,0E0,0E0,0E0],"parents":[2147483647,0,0,1,1,2,2,3,3,4,4,5,5,6,6,7,7,8,8,9,9,10,10,11,11,13,13,15,15,16,16,19,19,20,20,22,22,24,24,25,25],"right_children":[2,4,6,8,10,12,14,16,18,20,22,24,-1,26,-1,28,30,-1,-1,32,34,-1,36,-1,38,40,-1,-1,-1,-1,-1,-1,-1,-1,-1,-1,-1,-1,-1,-1,-1],"split_conditions":[1.5065208E-1,2.4443434E-1,2.2536342E-1,3.9092946E-1,3.0355313E-1,2.0390423E-1,2.6166338E-1,1.6047312E-1,3.9566287E-1,2.3927352E-1,4.136169E-1,2.2298396E-1,-3.252184E-2,4.0734923E-1,-3.2824684E-2,2.2397354E-1,3.3064085E-1,1.6265316E-3,-3.0836094E-2,2.4145803E-1,3.2531837E-1,-3.282736E-2,4.678683E-1,-3.0536642E-2,3.1755993E-1,7.3474124E-2,2.0059483E-2,8.719951E-3,-2.7340755E-2,4.4948228E-2,1.9900266E-2,-1.7207712E-2,2.846202E-2,-7.6230797E-3,-3.1360317E-2,3.1105455E-3,-2.5203427E-2,2.758447E-3,2.7842907E-2,-1.4645263E-2,-3.221917E-2],"split_indices":[3,2,3,1,2,2,3,0,1,1,0,0,0,0,0,1,1,0,0,0,1,0,2,0,0,1,0,0,0,0,0,0,0,0,0,0,0,0,0,0,0],"split_type":[0,0,0,0,0,0,0,0,0,0,0,0,0,0,0,0,0,0,0,0,0,0,0,0,0,0,0,0,0,0,0,0,0,0,0,0,0,0,0,0,0],"sum_hessian":[1.4909926E3,9.357568E2,5.552358E2,6.381183E2,2.9763846E2,1.17355064E2,4.378807E2,6.0035486E2,3.7763454E1,3.1986732E1,2.6565173E2,4.9121513E1,6.823355E1,3.2090508E1,4.057902E2,7.9801455E0,5.923747E2,1.279488E0,3.6483963E1,1.1825204E1,2.016153E1,2.6140244E2,4.2492914E0,8.491749E0,4.0629765E1,2.9847866E1,2.2426417E0,4.994731E0,2.9854143E0,5.8019226E2,1.2182445E1,3.4259217E0,8.399282E0,2.0641253E0,1.8097404E1,1.2189754E0,3.0303159E0,1.7830946E1,2.279882E1,3.220012E0,2.6627853E1],"tree_param":{"num_deleted":"0","num_feature":"4","num_nodes":"41","size_leaf_vector":"1"}},{"base_weights":[4.081307E-4,-5.554588E-1,9.1173154E-1,-5.831976E-1,-1.2868558E-1,9.4126016E-1,-3.0274991E-2,-6.0293734E-1,-4.2550188E-1,5.6296706E-1,-5.6958467E-1,9.52682E-1,-2.7131656E-1,-5.8701042E-2,-6.0723007E-1,-1.0339371E-1,-6.2087923E-1,6.2757385E-1,-1.794499E-2,-6.1838925E-1,1.9561902E-2,-7.123904E-3,9.5655406E-1,1.841331E-2,-2.7128596E-2,2.4551634E-2,-2.5780264E-2,-2.800635E-2,-3.1900406E-2,-1.3757217E-3,-2.7635116E-2,-3.174975E-2,-1.31459E-2,4.3596752E-2,2.3585131E-2,2.2668338E-4,-3.2158628E-2,2.8030679E-2,4.8083186E-2],"categories":[],"categories_nodes":[],"categories_segments":[],"categories_sizes":[],"default_left":[0,0,0,0,0,0,0,0,0,0,0,0,0,0,0,0,0,0,0,0,0,0,0,0,0,0,0,0,0,0,0,0,0,0,0,0,0,0,0],"id":25,"left_children":[1,3,5,7,9,11,-1,13,15,17,19,21,23,25,27,29,31,33,-1,35,-1,-1,37,-1,-1,-1,-1,-1,-1,-1,-1,-1,-1,-1,-1,-1,-1,-1,-1],"loss_changes":[7.5594415E2,1.0897705E1,2.5899445E1,2.4518127E0,1.7962442E1,7.9446716E0,0E0,1.7652893E0,6.2411003E0,1.5965414E0,1.9219646E0,2.468567E0,1.2333035E0,2.0464993E0,7.512512E-1,1.3153528E0,1.4715958E-1,4.2210102E-1,0E0,5.352669E-1,0E0,0E0,5.699768E-1,0E0,0E0,0E0,0E0,0E0,0E0,0E0,0E0,0E0,0E0,0E0,0E0,0E0,0E0,0E0,0E0],"parents":[2147483647,0,0,1,1,2,2,3,3,4,4,5,5,7,7,8,8,9,9,10,10,11,11,12,12,13,13,14,14,15,15,16,16,17,17,19,19,22,22],"right_children":[2,4,6,8,10,12,-1,14,16,18,20,22,24,26,28,30,32,34,-1,36,-1,-1,38,-1,-1,-1,-1,-1,-1,-1,-1,-1,-1,-1,-1,-1,-1,-1,-1],"split_conditions":[2.4917383E-1,1.935037E-1,4.2559305E-1,1.4320232E-1,2.0354407E-1,3.9426515E-1,-3.0274991E-2,-1.601947E-1,2.8147787E-1,4.0125006E-1,4.0734923E-1,-1.0973337E-2,9.306812E-2,2.5680792E-1,1.6389759E-1,3.4836453E-1,3.6796618E-1,6.2055502E-2,-1.794499E-2,3.391961E-2,1.9561902E-2,-7.123904E-3,2.6166338E-1,1.841331E-2,-2.7128596E-2,2.4551634E-2,-2.5780264E-2,-2.800635E-2,-3.1900406E-2,-1.3757217E-3,-2.7635116E-2,-3.174975E-2,-1.31459E-2,4.3596752E-2,2.3585131E-2,2.2668338E-4,-3.2158628E-2,2.8030679E-2,4.8083186E-2],"split_indices":[3,3,1,3,1,2,0,3,1,2,0,0,1,1,1,2,0,1,0,2,0,0,3,0,0,0,0,0,0,0,0,0,0,0,0,0,0,0,0],"split_type":[0,0,0,0,0,0,0,0,0,0,0,0,0,0,0,0,0,0,0,0,0,0,0,0,0,0,0,0,0,0,0,0,0,0,0,0,0,0,0],"sum_hessian":[1.4902667E3,9.258995E2,5.6436725E2,8.690479E2,5.685158E1,5.5396545E2,1.0401752E1,7.698567E2,9.91912E1,2.2024374E1,3.4827206E1,5.490084E2,4.957065E0,6.1397057E0,7.63717E2,3.8027126E1,6.1164078E1,2.0880268E1,1.1441066E0,3.3482857E1,1.3443508E0,1.8081032E0,5.472003E2,1.369749E0,3.587316E0,2.752856E0,3.3868496E0,3.0940256E2,4.5431442E2,3.3440865E1,4.5862594E0,5.809909E1,3.0649846E0,6.342739E0,1.4537528E1,1.3124263E0,3.217043E1,8.382389E0,5.3881793E2],"tree_param":{"num_deleted":"0","num_feature":"4","num_nodes":"39","size_leaf_vector":"1"}},{"base_weights":[-1.881528E-5,-4.9270502E-1,8.926588E-1,-6.1420816E-1,8.284211E-1,9.137281E-1,-4.838214E-1,-1.5800357E-2,-6.3595617E-1,9.34854E-1,-4.537499E-1,6.343495E-1,4.7810216E-2,-2.8734801E-2,9.763443E-4,5.668042E-1,-3.1302825E-2,-6.499493E-1,-4.9537608E-1,4.813081E-2,5.169488E-1,-2.803467E-2,6.823461E-4,-2.3890667E-2,9.231208E-1,-1.3063046E-2,4.5571454E-2,-2.734664E-2,-3.2774158E-2,-2.891931E-2,1.060932E-2,-8.332082E-3,4.016675E-2,2.8552627E-2,-2.4659017E-2,4.6895385E-2,1.2986928E-2],"categories":[],"categories_nodes":[],"categories_segments":[],"categories_sizes":[],"default_left":[0,0,0,0,0,0,0,0,0,0,0,0,0,0,0,0,0,0,0,0,0,0,0,0,0,0,0,0,0,0,0,0,0,0,0,0,0],"id":26,"left_children":[1,3,5,7,9,11,13,15,17,19,21,23,-1,-1,-1,25,-1,27,29,-1,31,-1,-1,33,35,-1,-1,-1,-1,-1,-1,-1,-1,-1,-1,-1,-1],"loss_changes":[6.544657E2,1.5442508E2,1.57899475E1,1.142511E1,1.1502949E1,5.5829773E0,4.060681E-1,1.1674899E1,1.3458557E0,3.758545E-1,3.5233617E-1,1.3670851E1,0E0,0E0,0E0,5.0362115E0,0E0,7.922363E-2,4.8777237E0,0E0,1.4748814E0,0E0,0E0,6.667025E0,2.4621964E-1,0E0,0E0,0E0,0E0,0E0,0E0,0E0,0E0,0E0,0E0,0E0,0E0],"parents":[2147483647,0,0,1,1,2,2,3,3,4,4,5,5,6,6,7,7,8,8,9,9,10,10,11,11,15,15,17,17,18,18,20,20,23,23,24,24],"right_children":[2,4,6,8,10,12,14,16,18,20,22,24,-1,-1,-1,26,-1,28,30,-1,32,-1,-1,34,36,-1,-1,-1,-1,-1,-1,-1,-1,-1,-1,-1,-1],"split_conditions":[3.1465825E-1,3.331551E-1,3.726497E-1,1.5818574E-1,2.7969095E-1,1.8757328E-1,2.2439612E-1,3.21164E-1,2.0390423E-1,3.6349562E-1,2.3492733E-1,3.9566287E-1,4.7810216E-2,-2.8734801E-2,9.763443E-4,1.1541505E-1,-3.1302825E-2,2.0721586E-1,2.5680792E-1,4.813081E-2,4.0125006E-1,-2.803467E-2,6.823461E-4,2.6630026E-1,2.6166338E-1,-1.3063046E-2,4.5571454E-2,-2.734664E-2,-3.2774158E-2,-2.891931E-2,1.060932E-2,-8.332082E-3,4.016675E-2,2.8552627E-2,-2.4659017E-2,4.6895385E-2,1.2986928E-2],"split_indices":[1,2,3,0,3,2,2,3,2,0,1,1,0,0,0,2,0,0,1,0,2,0,0,0,3,0,0,0,0,0,0,0,0,0,0,0,0],"split_type":[0,0,0,0,0,0,0,0,0,0,0,0,0,0,0,0,0,0,0,0,0,0,0,0,0,0,0,0,0,0,0,0,0,0,0,0,0],"sum_hessian":[1.4860647E3,9.5785425E2,5.282104E2,8.7767053E2,8.018375E1,5.2057825E2,7.6321087E0,3.0839207E1,8.468313E2,7.428799E1,5.895753E0,7.0805214E1,4.4977304E2,6.3448606E0,1.2872483E0,1.581347E1,1.5025737E1,7.6687427E2,7.995705E1,6.843809E1,5.849906E0,4.635509E0,1.260244E0,2.1870264E1,4.8934948E1,4.71828E0,1.1095191E1,4.4183895E1,7.2269037E2,7.172495E1,8.232093E0,1.8506391E0,3.9992669E0,9.548404E0,1.2321859E1,4.7463158E1,1.47179E0],"tree_param":{"num_deleted":"0","num_feature":"4","num_nodes":"37","size_leaf_vector":"1"}},{"base_weights":[-4.5823265E-4,3.3167818E-1,-5.684484E-1,7.577073E-1,-6.03356E-1,-3.0073994E-1,-6.401795E-1,8.409227E-1,-5.848185E-1,-2.5663674E-1,-6.4450854E-1,1.63562E-1,-3.208887E-2,-5.267942E-1,-3.239317E-2,-1.2395786E-1,8.5407525E-1,1.6186455E-3,-3.0367319E-2,2.806579E-1,-5.785931E-1,-3.239609E-2,-3.51871E-1,-3.013436E-2,3.303886E-1,-6.087732E-1,1.9761955E-2,8.437614E-3,-2.6918782E-2,3.028932E-2,4.371267E-2,-1.7069632E-2,2.705561E-2,-3.1093812E-2,-7.855095E-3,3.1769394E-3,-2.4766272E-2,1.9727578E-2,-2.4977874E-2,-1.42346835E-2,-3.1819772E-2],"categories":[],"categories_nodes":[],"categories_segments":[],"categories_sizes":[],"default_left":[0,0,0,0,0,0,0,0,0,0,0,0,0,0,0,0,0,0,0,0,0,0,0,0,0,0,0,0,0,0,0,0,0,0,0,0,0,0,0,0,0],"id":27,"left_children":[1,3,5,7,9,11,13,15,17,19,21,23,-1,25,-1,27,29,-1,-1,31,33,-1,35,-1,37,39,-1,-1,-1,-1,-1,-1,-1,-1,-1,-1,-1,-1,-1,-1,-1],"loss_changes":[2.769315E2,3.694513E2,1.0209015E1,7.163452E1,3.9795609E0,1.8528484E1,3.0090332E-2,7.7208557E0,5.4464436E-1,5.7815156E0,3.0723572E-2,6.599362E0,0E0,2.690216E0,0E0,1.1756306E0,2.436798E0,0E0,0E0,2.265768E0,2.7882147E-1,0E0,3.3984846E-1,0E0,2.4210129E0,8.8765144E-2,0E0,0E0,0E0,0E0,0E0,0E0,0E0,0E0,0E0,0E0,0E0,0E0,0E0,0E0,0E0],"parents":[2147483647,0,0,1,1,2,2,3,3,4,4,5,5,6,6,7,7,8,8,9,9,10,10,11,11,13,13,15,15,16,16,19,19,20,20,22,22,24,24,25,25],"right_children":[2,4,6,8,10,12,14,16,18,20,22,24,-1,26,-1,28,30,-1,-1,32,34,-1,36,-1,38,40,-1,-1,-1,-1,-1,-1,-1,-1,-1,-1,-1,-1,-1,-1,-1],"split_conditions":[1.5065208E-1,2.4443434E-1,2.2536342E-1,3.9092946E-1,3.0355313E-1,2.0390423E-1,2.6166338E-1,1.6047312E-1,3.9566287E-1,2.3927352E-1,4.136169E-1,2.2298396E-1,-3.208887E-2,4.0734923E-1,-3.239317E-2,2.2397354E-1,2.3846921E-1,1.6186455E-3,-3.0367319E-2,2.4145803E-1,3.2129773E-1,-3.239609E-2,4.678683E-1,-3.013436E-2,3.4035906E-1,7.3474124E-2,1.9761955E-2,8.437614E-3,-2.6918782E-2,3.028932E-2,4.371267E-2,-1.7069632E-2,2.705561E-2,-3.1093812E-2,-7.855095E-3,3.1769394E-3,-2.4766272E-2,1.9727578E-2,-2.4977874E-2,-1.42346835E-2,-3.1819772E-2],"split_indices":[3,2,3,1,2,2,3,0,1,1,0,0,0,0,0,1,0,0,0,0,0,0,2,0,1,1,0,0,0,0,0,0,0,0,0,0,0,0,0,0,0],"split_type":[0,0,0,0,0,0,0,0,0,0,0,0,0,0,0,0,0,0,0,0,0,0,0,0,0,0,0,0,0,0,0,0,0,0,0,0,0,0,0,0,0],"sum_hessian":[1.4659633E3,9.253021E2,5.4066113E2,6.3580176E2,2.8950037E2,1.15350945E2,4.2531015E2,5.990441E2,3.6757664E1,3.148325E1,2.5801712E2,4.906809E1,6.628285E1,3.1407618E1,3.9390256E2,7.9426236E0,5.911015E2,1.2790402E0,3.5478622E1,1.1844654E1,1.9638596E1,2.5384236E2,4.1747575E0,8.305866E0,4.0762222E1,2.9155151E1,2.2524657E0,5.002249E0,2.9403746E0,4.6759068E1,5.443424E2,3.4040074E0,8.440647E0,1.7378563E1,2.260032E0,1.2146119E0,2.9601455E0,3.832401E1,2.4382133E0,3.1778295E0,2.5977322E1],"tree_param":{"num_deleted":"0","num_feature":"4","num_nodes":"41","size_leaf_vector":"1"}},{"base_weights":[5.5435486E-4,-5.455199E-1,8.779182E-1,-5.73279E-1,-1.2314051E-1,9.0602523E-1,-2.9833868E-2,-5.931904E-1,-4.1545925E-1,5.4233557E-1,-5.598452E-1,9.1698235E-1,-2.6580426E-1,-4.96542E-2,-5.975482E-1,-9.94298E-2,-6.1153495E-1,6.0395455E-1,-1.7595744E-2,-6.093623E-1,1.9374648E-2,-7.2265454E-3,9.207641E-1,1.7902216E-2,-2.673318E-2,2.4345553E-2,-2.532885E-2,-2.7482841E-2,-3.1448536E-2,-1.2951604E-3,-2.7160082E-2,-1.2007306E-2,-3.125637E-2,2.1861333E-2,4.0963743E-2,2.5585582E-4,-3.1721123E-2,2.6747406E-2,4.6290375E-2],"categories":[],"categories_nodes":[],"categories_segments":[],"categories_sizes":[],"default_left":[0,0,0,0,0,0,0,0,0,0,0,0,0,0,0,0,0,0,0,0,0,0,0,0,0,0,0,0,0,0,0,0,0,0,0,0,0,0,0],"id":28,"left_children":[1,3,5,7,9,11,-1,13,15,17,19,21,23,25,27,29,31,33,-1,35,-1,-1,37,-1,-1,-1,-1,-1,-1,-1,-1,-1,-1,-1,-1,-1,-1,-1,-1],"loss_changes":[7.02861E2,1.0531433E1,2.3866516E1,2.4189453E0,1.687916E1,7.3399353E0,0E0,1.7487793E0,6.0342255E0,1.4857779E0,1.87463E0,2.3320618E0,1.1801983E0,1.9781817E0,7.7505493E-1,1.2537279E0,1.5532112E-1,4.3105793E-1,0E0,5.2038574E-1,0E0,0E0,5.6707764E-1,0E0,0E0,0E0,0E0,0E0,0E0,0E0,0E0,0E0,0E0,0E0,0E0,0E0,0E0,0E0,0E0],"parents":[2147483647,0,0,1,1,2,2,3,3,4,4,5,5,7,7,8,8,9,9,10,10,11,11,12,12,13,13,14,14,15,15,16,16,17,17,19,19,22,22],"right_children":[2,4,6,8,10,12,-1,14,16,18,20,22,24,26,28,30,32,34,-1,36,-1,-1,38,-1,-1,-1,-1,-1,-1,-1,-1,-1,-1,-1,-1,-1,-1,-1,-1],"split_conditions":[2.4917383E-1,1.935037E-1,4.2559305E-1,1.4320232E-1,2.0354407E-1,3.9426515E-1,-2.9833868E-2,-1.601947E-1,2.8147787E-1,4.0125006E-1,4.0734923E-1,-1.0973337E-2,9.306812E-2,2.5680792E-1,1.6389759E-1,3.4836453E-1,4.217879E-2,1.0692508E-1,-1.7595744E-2,3.391961E-2,1.9374648E-2,-7.2265454E-3,2.6166338E-1,1.7902216E-2,-2.673318E-2,2.4345553E-2,-2.532885E-2,-2.7482841E-2,-3.1448536E-2,-1.2951604E-3,-2.7160082E-2,-1.2007306E-2,-3.125637E-2,2.1861333E-2,4.0963743E-2,2.5585582E-4,-3.1721123E-2,2.6747406E-2,4.6290375E-2],"split_indices":[3,3,1,3,1,2,0,3,1,2,0,0,1,1,1,2,2,2,0,2,0,0,3,0,0,0,0,0,0,0,0,0,0,0,0,0,0,0,0],"split_type":[0,0,0,0,0,0,0,0,0,0,0,0,0,0,0,0,0,0,0,0,0,0,0,0,0,0,0,0,0,0,0,0,0,0,0,0,0,0,0],"sum_hessian":[1.4650272E3,9.032312E2,5.6179596E2,8.471955E2,5.603576E1,5.516663E2,1.012965E1,7.498341E2,9.736137E1,2.2106579E1,3.3929176E1,5.4677124E2,4.895067E0,6.062575E0,7.4377155E2,3.7854927E1,5.9506443E1,2.0985205E1,1.1213756E0,3.2582848E1,1.3463321E0,1.808884E0,5.4496234E2,1.3743575E0,3.52071E0,2.7581012E0,3.3044736E0,3.0199304E2,4.4177847E2,3.3382324E1,4.4725995E0,2.7600737E0,5.674637E1,1.353517E1,7.4500346E0,1.30793E0,3.1274916E1,8.413377E0,5.3654895E2],"tree_param":{"num_deleted":"0","num_feature":"4","num_nodes":"39","size_leaf_vector":"1"}},{"base_weights":[-9.6175754E-5,-4.8451966E-1,8.5954714E-1,-6.051687E-1,7.980393E-1,8.796169E-1,-4.7422954E-1,-1.3760384E-2,-6.270084E-1,8.913595E-1,-2.7599439E-2,6.2659097E-1,4.6170987E-2,1.1426733E-3,-2.8289272E-2,5.460738E-1,-3.0847136E-2,-6.4121145E-1,-4.8523265E-1,3.865011E-1,9.09842E-1,-1.220076E-2,8.79958E-1,-8.842271E-3,4.6100173E-2,-2.680539E-2,-3.2344732E-2,-2.8430928E-2,1.0435512E-2,3.2013174E-2,-4.31922E-3,4.6312306E-2,2.4599615E-2,2.7978385E-2,-2.2103088E-2,4.5158166E-2,-1.8171764E-3],"categories":[],"categories_nodes":[],"categories_segments":[],"categories_sizes":[],"default_left":[0,0,0,0,0,0,0,0,0,0,0,0,0,0,0,0,0,0,0,0,0,0,0,0,0,0,0,0,0,0,0,0,0,0,0,0,0],"id":29,"left_children":[1,3,5,7,9,11,13,15,17,19,-1,21,-1,-1,-1,23,-1,25,27,29,31,33,35,-1,-1,-1,-1,-1,-1,-1,-1,-1,-1,-1,-1,-1,-1],"loss_changes":[6.088205E2,1.4517491E2,1.4522278E1,1.1037811E1,1.0675282E1,5.1788025E0,3.9799893E-1,1.09671955E1,1.3496094E0,3.5736847E-1,0E0,1.2921106E1,0E0,0E0,0E0,4.744288E0,0E0,9.9090576E-2,4.702257E0,5.8595854E-1,4.1671753E-2,6.0576067E0,1.2475433E0,0E0,0E0,0E0,0E0,0E0,0E0,0E0,0E0,0E0,0E0,0E0,0E0,0E0,0E0],"parents":[2147483647,0,0,1,1,2,2,3,3,4,4,5,5,6,6,7,7,8,8,9,9,11,11,15,15,17,17,18,18,19,19,20,20,21,21,22,22],"right_children":[2,4,6,8,10,12,14,16,18,20,-1,22,-1,-1,-1,24,-1,26,28,30,32,34,36,-1,-1,-1,-1,-1,-1,-1,-1,-1,-1,-1,-1,-1,-1],"split_conditions":[3.1465825E-1,3.331551E-1,3.726497E-1,1.5818574E-1,2.9163313E-1,3.9092946E-1,1.6047312E-1,3.21164E-1,2.0390423E-1,3.53673E-1,-2.7599439E-2,2.4955717E-1,4.6170987E-2,1.1426733E-3,-2.8289272E-2,1.3487346E-1,-3.0847136E-2,2.0721586E-1,2.5680792E-1,1.7115831E-1,2.3908353E-1,2.6747963E-1,2.7969095E-1,-8.842271E-3,4.6100173E-2,-2.680539E-2,-3.2344732E-2,-2.8430928E-2,1.0435512E-2,3.2013174E-2,-4.31922E-3,4.6312306E-2,2.4599615E-2,2.7978385E-2,-2.2103088E-2,4.5158166E-2,-1.8171764E-3],"split_indices":[1,2,3,0,3,1,0,3,2,2,0,2,0,0,0,2,0,0,1,0,3,0,3,0,0,0,0,0,0,0,0,0,0,0,0,0,0],"split_type":[0,0,0,0,0,0,0,0,0,0,0,0,0,0,0,0,0,0,0,0,0,0,0,0,0,0,0,0,0,0,0,0,0,0,0,0,0],"sum_hessian":[1.4599946E3,9.34068E2,5.259267E2,8.542388E2,7.982922E1,5.1846564E2,7.461032E0,3.0480198E1,8.2375854E2,7.498562E1,4.843605E0,7.876811E1,4.396975E2,1.2771897E0,6.183842E0,1.5857234E1,1.4622964E1,7.4554694E2,7.821162E1,3.4220617E0,7.156355E1,2.2639927E1,5.6128185E1,5.606129E0,1.0251105E1,4.313564E1,7.024113E2,6.99829E1,8.228717E0,1.9966553E0,1.4254062E0,6.7689476E1,3.874082E0,9.586694E0,1.3053233E1,5.4755833E1,1.3723528E0],"tree_param":{"num_deleted":"0","num_feature":"4","num_nodes":"37","size_leaf_vector":"1"}},{"base_weights":[-5.440216E-4,3.2175115E-1,-5.5964327E-1,7.301929E-1,-5.950871E-1,-3.0038634E-1,-3.1702083E-2,8.115373E-1,-5.403733E-1,-2.5245395E-1,-6.363072E-1,1.3940792E-1,-3.169855E-2,-2.367352E-1,8.228036E-1,-3.154247E-2,-9.576751E-2,2.6391283E-1,-5.6951475E-1,-3.198917E-2,-3.4285617E-1,-2.9945374E-2,2.9655236E-1,1.6683578E-2,-2.192413E-2,-7.702946E-3,4.1395266E-2,4.2755373E-2,-2.095364E-2,-1.6925832E-2,2.5737638E-2,-3.0681623E-2,-7.403474E-3,3.4801736E-3,-2.4387872E-2,1.7697541E-2,-2.458301E-2],"categories":[],"categories_nodes":[],"categories_segments":[],"categories_sizes":[],"default_left":[0,0,0,0,0,0,0,0,0,0,0,0,0,0,0,0,0,0,0,0,0,0,0,0,0,0,0,0,0,0,0,0,0,0,0,0,0],"id":30,"left_children":[1,3,5,7,9,11,-1,13,15,17,19,21,-1,23,25,-1,27,29,31,-1,33,-1,35,-1,-1,-1,-1,-1,-1,-1,-1,-1,-1,-1,-1,-1,-1],"loss_changes":[2.5972388E2,3.428167E2,9.975433E0,6.585794E1,3.8268204E0,1.7608597E1,0E0,7.225189E0,1.4957743E0,5.385373E0,3.705597E-2,6.2490997E0,0E0,9.64092E-1,3.0637207E0,0E0,2.731754E0,2.115742E0,2.8338194E-1,0E0,3.385985E-1,0E0,2.1563458E0,0E0,0E0,0E0,0E0,0E0,0E0,0E0,0E0,0E0,0E0,0E0,0E0,0E0,0E0],"parents":[2147483647,0,0,1,1,2,2,3,3,4,4,5,5,7,7,8,8,9,9,10,10,11,11,13,13,14,14,16,16,17,17,18,18,20,20,22,22],"right_children":[2,4,6,8,10,12,-1,14,16,18,20,22,-1,24,26,-1,28,30,32,-1,34,-1,36,-1,-1,-1,-1,-1,-1,-1,-1,-1,-1,-1,-1,-1,-1],"split_conditions":[1.5065208E-1,2.4443434E-1,2.3113228E-1,3.7719953E-1,3.0355313E-1,2.0390423E-1,-3.1702083E-2,1.5328564E-1,2.9049304E-1,2.3927352E-1,4.136169E-1,2.2298396E-1,-3.169855E-2,2.116438E-2,-1.601947E-1,-3.154247E-2,3.0072182E-1,2.4145803E-1,3.2129773E-1,-3.198917E-2,4.3539953E-1,-2.9945374E-2,3.4035906E-1,1.6683578E-2,-2.192413E-2,-7.702946E-3,4.1395266E-2,4.2755373E-2,-2.095364E-2,-1.6925832E-2,2.5737638E-2,-3.0681623E-2,-7.403474E-3,3.4801736E-3,-2.4387872E-2,1.7697541E-2,-2.458301E-2],"split_indices":[3,2,3,1,2,2,0,0,0,1,0,0,0,2,3,0,0,0,0,0,0,0,1,0,0,0,0,0,0,0,0,0,0,0,0,0,0],"split_type":[0,0,0,0,0,0,0,0,0,0,0,0,0,0,0,0,0,0,0,0,0,0,0,0,0,0,0,0,0,0,0,0,0,0,0,0,0],"sum_hessian":[1.4393497E3,9.132991E2,5.2605066E2,6.319677E2,2.8133136E2,1.1842186E2,4.076288E2,5.942818E2,3.7685947E1,3.0975826E1,2.5035555E2,5.1330456E1,6.70914E1,6.106331E0,5.881754E2,3.0965631E1,6.720316E0,1.1847901E1,1.9127924E1,2.4625818E2,4.0973687E0,8.514657E0,4.28158E1,1.4246018E0,4.681729E0,2.9040833E0,5.8527136E2,1.2878175E0,5.4324985E0,3.3802335E0,8.467668E0,1.6902517E1,2.2254071E0,1.2003206E0,2.8970485E0,4.042309E1,2.392706E0],"tree_param":{"num_deleted":"0","num_feature":"4","num_nodes":"37","size_leaf_vector":"1"}},{"base_weights":[7.1708596E-4,-5.358999E-1,8.4742E-1,-5.63703E-1,-1.1747511E-1,8.7424386E-1,-2.9393706E-2,-5.838209E-1,-4.0554848E-1,4.6296746E-1,-5.973313E-1,8.848492E-1,-2.6243895E-1,-4.0857498E-2,-5.88248E-1,-9.5080875E-2,-6.026837E-1,5.834202E-1,-2.3470735E-2,2.920789E-4,-3.1190736E-2,-7.3060677E-3,8.885578E-1,1.7332882E-2,-2.6421694E-2,2.4121562E-2,-2.488793E-2,-2.7162153E-2,-3.1157658E-2,-1.0357377E-2,8.760392E-3,-3.0875737E-2,-1.1941262E-2,2.0714974E-2,4.0553104E-2,2.5548106E-2,4.4678282E-2],"categories":[],"categories_nodes":[],"categories_segments":[],"categories_sizes":[],"default_left":[0,0,0,0,0,0,0,0,0,0,0,0,0,0,0,0,0,0,0,0,0,0,0,0,0,0,0,0,0,0,0,0,0,0,0,0,0],"id":31,"left_children":[1,3,5,7,9,11,-1,13,15,17,19,21,23,25,27,29,31,33,-1,-1,-1,-1,35,-1,-1,-1,-1,-1,-1,-1,-1,-1,-1,-1,-1,-1,-1],"loss_changes":[6.543362E2,1.0188522E1,2.202237E1,2.3923035E0,1.5925913E1,6.8481445E0,0E0,1.7325897E0,5.85023E0,3.192885E0,5.019493E-1,2.2096558E0,1.1300753E0,1.9101863E0,8.000488E-1,1.2077138E0,1.7009544E-1,5.672965E-1,0E0,0E0,0E0,0E0,5.686035E-1,0E0,0E0,0E0,0E0,0E0,0E0,0E0,0E0,0E0,0E0,0E0,0E0,0E0,0E0],"parents":[2147483647,0,0,1,1,2,2,3,3,4,4,5,5,7,7,8,8,9,9,10,10,11,11,12,12,13,13,14,14,15,15,16,16,17,17,22,22],"right_children":[2,4,6,8,10,12,-1,14,16,18,20,22,24,26,28,30,32,34,-1,-1,-1,-1,36,-1,-1,-1,-1,-1,-1,-1,-1,-1,-1,-1,-1,-1,-1],"split_conditions":[2.4917383E-1,1.935037E-1,4.2559305E-1,1.4320232E-1,2.6227033E-1,3.9426515E-1,-2.9393706E-2,-1.601947E-1,2.8147787E-1,4.0125006E-1,3.391961E-2,-1.0973337E-2,9.306812E-2,2.5680792E-1,1.8073173E-1,1.60373E-1,3.6796618E-1,1.0692508E-1,-2.3470735E-2,2.920789E-4,-3.1190736E-2,-7.3060677E-3,2.6166338E-1,1.7332882E-2,-2.6421694E-2,2.4121562E-2,-2.488793E-2,-2.7162153E-2,-3.1157658E-2,-1.0357377E-2,8.760392E-3,-3.0875737E-2,-1.1941262E-2,2.0714974E-2,4.0553104E-2,2.5548106E-2,4.4678282E-2],"split_indices":[3,3,1,3,1,2,0,3,1,2,2,0,1,1,1,1,0,2,0,0,0,0,3,0,0,0,0,0,0,0,0,0,0,0,0,0,0],"split_type":[0,0,0,0,0,0,0,0,0,0,0,0,0,0,0,0,0,0,0,0,0,0,0,0,0,0,0,0,0,0,0,0,0,0,0,0,0],"sum_hessian":[1.4381431E3,8.8048376E2,5.576593E2,8.25298E2,5.5185787E1,5.4781226E2,9.847034E0,7.2977606E2,9.552189E1,2.4991194E1,3.0194595E1,5.4296783E2,4.8444E0,5.9849997E0,7.237911E2,3.7673042E1,5.7848843E1,2.246345E1,2.527743E0,1.3027706E0,2.8891825E1,1.808505E0,5.4115936E2,1.3803391E0,3.4640608E0,2.7637737E0,3.221226E0,3.2339023E2,4.0040085E2,2.679638E1,1.0876665E1,5.4913418E1,2.9354243E0,1.4506315E1,7.957135E0,8.43169E0,5.3272766E2],"tree_param":{"num_deleted":"0","num_feature":"4","num_nodes":"37","size_leaf_vector":"1"}},{"base_weights":[-1.7329138E-4,-4.7679374E-1,8.2987803E-1,-5.9660363E-1,7.70612E-1,8.490744E-1,-4.649032E-1,-1.1768764E-2,-6.185387E-1,8.60051E-1,-2.717999E-2,6.0613966E-1,4.455513E-2,1.1780717E-3,-2.78413E-2,5.2698034E-1,-3.041311E-2,-6.3297284E-1,-4.7540703E-1,4.4298306E-2,4.7013706E-1,-3.59136E-2,8.37965E-1,-1.2791238E-2,4.2429846E-2,-2.630788E-2,-3.1939592E-2,-2.7957497E-2,1.0227592E-2,-8.828026E-3,3.73529E-2,2.5281847E-2,-2.6564682E-2,4.2977016E-2,-1.7310912E-3],"categories":[],"categories_nodes":[],"categories_segments":[],"categories_sizes":[],"default_left":[0,0,0,0,0,0,0,0,0,0,0,0,0,0,0,0,0,0,0,0,0,0,0,0,0,0,0,0,0,0,0,0,0,0,0],"id":32,"left_children":[1,3,5,7,9,11,13,15,17,19,-1,21,-1,-1,-1,23,-1,25,27,-1,29,31,33,-1,-1,-1,-1,-1,-1,-1,-1,-1,-1,-1,-1],"loss_changes":[5.6740094E2,1.3662021E2,1.3397461E1,1.066333E1,9.903038E0,4.7267456E0,3.8530147E-1,1.0311381E1,1.3554077E0,3.468399E-1,0E0,1.1819788E1,0E0,0E0,0E0,4.4646096E0,0E0,1.1462402E-1,4.52503E0,0E0,1.3566124E0,6.1630154E0,1.1261406E0,0E0,0E0,0E0,0E0,0E0,0E0,0E0,0E0,0E0,0E0,0E0,0E0],"parents":[2147483647,0,0,1,1,2,2,3,3,4,4,5,5,6,6,7,7,8,8,9,9,11,11,15,15,17,17,18,18,20,20,21,21,22,22],"right_children":[2,4,6,8,10,12,14,16,18,20,-1,22,-1,-1,-1,24,-1,26,28,-1,30,32,34,-1,-1,-1,-1,-1,-1,-1,-1,-1,-1,-1,-1],"split_conditions":[3.1465825E-1,3.331551E-1,3.726497E-1,1.5818574E-1,2.9163313E-1,3.9092946E-1,1.6047312E-1,3.21164E-1,2.0390423E-1,3.6349562E-1,-2.717999E-2,2.0725419E-1,4.455513E-2,1.1780717E-3,-2.78413E-2,1.1541505E-1,-3.041311E-2,2.0721586E-1,2.5680792E-1,4.4298306E-2,4.0125006E-1,2.9535067E-1,2.7969095E-1,-1.2791238E-2,4.2429846E-2,-2.630788E-2,-3.1939592E-2,-2.7957497E-2,1.0227592E-2,-8.828026E-3,3.73529E-2,2.5281847E-2,-2.6564682E-2,4.2977016E-2,-1.7310912E-3],"split_indices":[1,2,3,0,3,1,0,3,2,0,0,2,0,0,0,2,0,0,1,0,2,0,3,0,0,0,0,0,0,0,0,0,0,0,0],"split_type":[0,0,0,0,0,0,0,0,0,0,0,0,0,0,0,0,0,0,0,0,0,0,0,0,0,0,0,0,0,0,0,0,0,0,0],"sum_hessian":[1.4322087E3,9.100679E2,5.2214087E2,8.307941E2,7.927375E1,5.148519E2,7.288935E0,3.0089216E1,8.007049E2,7.454608E1,4.727672E0,7.820824E1,4.3664368E2,1.2722204E0,6.016715E0,1.5871087E1,1.4218129E1,7.242458E2,7.645909E1,6.870733E1,5.8387523E0,2.0971523E1,5.7236713E1,4.6813617E0,1.1189726E1,4.2139828E1,6.82106E2,6.823324E1,8.225851E0,1.8592451E0,3.9795074E0,1.000898E1,1.09625435E1,5.5870235E1,1.3664793E0],"tree_param":{"num_deleted":"0","num_feature":"4","num_nodes":"35","size_leaf_vector":"1"}},{"base_weights":[-6.3381257E-4,3.1253105E-1,-5.511995E-1,7.0502526E-1,-5.872741E-1,-2.9304728E-1,-3.131151E-2,7.825737E-1,-5.309283E-1,-2.4836574E-1,-6.2859327E-1,1.3356785E-1,-3.1308018E-2,-2.3159897E-1,7.934664E-1,-3.1135002E-2,-8.660159E-2,2.4786393E-1,-5.6060064E-1,-3.160684E-2,-3.3428934E-1,-2.9582007E-2,2.8440988E-1,1.6226267E-2,-2.1539435E-2,-7.4799503E-3,3.992101E-2,4.2046454E-2,-2.0503253E-2,-1.6795507E-2,2.4499025E-2,-3.0282332E-2,-6.944099E-3,3.5800487E-3,-2.3982365E-2,1.6976887E-2,-2.424012E-2],"categories":[],"categories_nodes":[],"categories_segments":[],"categories_sizes":[],"default_left":[0,0,0,0,0,0,0,0,0,0,0,0,0,0,0,0,0,0,0,0,0,0,0,0,0,0,0,0,0,0,0,0,0,0,0,0,0],"id":33,"left_children":[1,3,5,7,9,11,-1,13,15,17,19,21,-1,23,25,-1,27,29,31,-1,33,-1,35,-1,-1,-1,-1,-1,-1,-1,-1,-1,-1,-1,-1,-1,-1],"loss_changes":[2.4368884E2,3.1858954E2,9.742233E0,6.0582672E1,3.683197E0,1.675029E1,0E0,6.713623E0,1.4816236E0,5.0113816E0,4.285431E-2,5.8836393E0,0E0,9.213363E-1,2.8526306E0,0E0,2.6273875E0,1.9792054E0,2.8838587E-1,0E0,3.3063686E-1,0E0,2.0272937E0,0E0,0E0,0E0,0E0,0E0,0E0,0E0,0E0,0E0,0E0,0E0,0E0,0E0,0E0],"parents":[2147483647,0,0,1,1,2,2,3,3,4,4,5,5,7,7,8,8,9,9,10,10,11,11,13,13,14,14,16,16,17,17,18,18,20,20,22,22],"right_children":[2,4,6,8,10,12,-1,14,16,18,20,22,-1,24,26,-1,28,30,32,-1,34,-1,36,-1,-1,-1,-1,-1,-1,-1,-1,-1,-1,-1,-1,-1,-1],"split_conditions":[1.5065208E-1,2.4443434E-1,2.3113228E-1,3.7719953E-1,3.0355313E-1,2.0390423E-1,-3.131151E-2,1.5328564E-1,2.9049304E-1,2.3927352E-1,4.136169E-1,2.2298396E-1,-3.1308018E-2,2.116438E-2,-1.601947E-1,-3.1135002E-2,3.0072182E-1,2.4145803E-1,3.2129773E-1,-3.160684E-2,4.678683E-1,-2.9582007E-2,3.4035906E-1,1.6226267E-2,-2.1539435E-2,-7.4799503E-3,3.992101E-2,4.2046454E-2,-2.0503253E-2,-1.6795507E-2,2.4499025E-2,-3.0282332E-2,-6.944099E-3,3.5800487E-3,-2.3982365E-2,1.6976887E-2,-2.424012E-2],"split_indices":[3,2,3,1,2,2,0,0,0,1,0,0,0,2,3,0,0,0,0,0,2,0,1,0,0,0,0,0,0,0,0,0,0,0,0,0,0],"split_type":[0,0,0,0,0,0,0,0,0,0,0,0,0,0,0,0,0,0,0,0,0,0,0,0,0,0,0,0,0,0,0,0,0,0,0,0,0],"sum_hessian":[1.4113632E3,8.999174E2,5.1144574E2,6.2674725E2,2.7317014E2,1.1627908E2,3.9516666E2,5.9008966E2,3.665763E1,3.0447155E1,2.4272299E2,5.124678E1,6.50323E1,6.0551996E0,5.840344E2,3.0049688E1,6.607942E0,1.1838533E1,1.8608622E1,2.3870102E2,4.021981E0,8.320725E0,4.2926056E1,1.4309253E0,4.6242743E0,2.8992832E0,5.8113513E2,1.2949399E0,5.313002E0,3.356996E0,8.481538E0,1.6418715E1,2.1899068E0,1.1943506E0,2.82763E0,4.0576607E1,2.34945E0],"tree_param":{"num_deleted":"0","num_feature":"4","num_nodes":"37","size_leaf_vector":"1"}},{"base_weights":[8.907434E-4,-5.266096E-1,8.198694E-1,-5.5444723E-1,-1.12268955E-1,8.4555626E-1,-2.8971283E-2,-5.741569E-1,-3.9058286E-1,4.4845435E-1,-5.89049E-1,8.5582167E-1,-2.5760633E-1,-3.7970025E-2,-5.7858175E-1,-8.880207E-3,-5.6081235E-1,5.634721E-1,-2.3062637E-2,3.272112E-4,-3.0794386E-2,-7.4010515E-3,8.594778E-1,1.6829837E-2,-2.6058212E-2,2.3224967E-2,-2.446129E-2,-2.636998E-2,-3.0622354E-2,1.2220359E-2,-1.5123111E-2,-1.6883299E-2,-3.1207824E-2,1.9953422E-2,3.9306518E-2,2.4280382E-2,4.3226562E-2],"categories":[],"categories_nodes":[],"categories_segments":[],"categories_sizes":[],"default_left":[0,0,0,0,0,0,0,0,0,0,0,0,0,0,0,0,0,0,0,0,0,0,0,0,0,0,0,0,0,0,0,0,0,0,0,0,0],"id":34,"left_children":[1,3,5,7,9,11,-1,13,15,17,19,21,23,25,27,29,31,33,-1,-1,-1,-1,35,-1,-1,-1,-1,-1,-1,-1,-1,-1,-1,-1,-1,-1,-1],"loss_changes":[6.0995056E2,9.842941E0,2.0371094E1,2.3738708E0,1.5052916E1,6.376007E0,0E0,1.6766663E0,5.8103294E0,2.9791765E0,4.888382E-1,2.1046448E0,1.0806178E0,1.7986234E0,9.076538E-1,2.2020836E0,6.6389465E-1,5.4731846E-1,0E0,0E0,0E0,0E0,5.9472656E-1,0E0,0E0,0E0,0E0,0E0,0E0,0E0,0E0,0E0,0E0,0E0,0E0,0E0,0E0],"parents":[2147483647,0,0,1,1,2,2,3,3,4,4,5,5,7,7,8,8,9,9,10,10,11,11,12,12,13,13,14,14,15,15,16,16,17,17,22,22],"right_children":[2,4,6,8,10,12,-1,14,16,18,20,22,24,26,28,30,32,34,-1,-1,-1,-1,36,-1,-1,-1,-1,-1,-1,-1,-1,-1,-1,-1,-1,-1,-1],"split_conditions":[2.4917383E-1,1.935037E-1,4.2559305E-1,1.4588441E-1,2.6227033E-1,3.9426515E-1,-2.8971283E-2,-1.601947E-1,1.473784E-1,4.0125006E-1,3.391961E-2,-1.0973337E-2,9.306812E-2,2.5680792E-1,1.6389759E-1,3.2981148E-1,3.1358212E-1,1.0692508E-1,-2.3062637E-2,3.272112E-4,-3.0794386E-2,-7.4010515E-3,2.6166338E-1,1.6829837E-2,-2.6058212E-2,2.3224967E-2,-2.446129E-2,-2.636998E-2,-3.0622354E-2,1.2220359E-2,-1.5123111E-2,-1.6883299E-2,-3.1207824E-2,1.9953422E-2,3.9306518E-2,2.4280382E-2,4.3226562E-2],"split_indices":[3,3,1,3,1,2,0,3,2,2,2,0,1,1,1,0,2,2,0,0,0,0,3,0,0,0,0,0,0,0,0,0,0,0,0,0,0],"split_type":[0,0,0,0,0,0,0,0,0,0,0,0,0,0,0,0,0,0,0,0,0,0,0,0,0,0,0,0,0,0,0,0,0,0,0,0,0],"sum_hessian":[1.4098855E3,8.57762E2,5.5212354E2,8.034442E2,5.4317802E1,5.425595E2,9.564045E0,7.1494635E2,8.849787E1,2.4988806E1,2.9328997E1,5.377794E2,4.7800503E0,5.930242E0,7.090161E2,2.7619442E1,6.087843E1,2.252188E1,2.4669275E0,1.2972461E0,2.803175E1,1.8082948E0,5.359711E2,1.3835804E0,3.3964698E0,2.7920125E0,3.1382298E0,2.8892465E2,4.2009146E2,1.4917174E1,1.2702267E1,1.4860177E1,4.601825E1,1.4562034E1,7.9598455E0,8.442666E0,5.2752844E2],"tree_param":{"num_deleted":"0","num_feature":"4","num_nodes":"37","size_leaf_vector":"1"}},{"base_weights":[-2.5750874E-4,-4.694227E-1,8.0292827E-1,-5.8844256E-1,7.460408E-1,8.213506E-1,-4.5581675E-1,-1.0102318E-2,-6.104754E-1,8.3204883E-1,-2.6773548E-2,5.718073E-1,4.2965557E-2,-2.7426308E-2,1.3373776E-3,5.083772E-1,-2.9998694E-2,-6.2516665E-1,-4.6578375E-1,3.493683E-1,8.501485E-1,-1.6125962E-2,8.280215E-1,-8.774835E-3,4.312141E-2,-2.5795413E-2,-3.1558048E-2,-2.7497629E-2,1.0047232E-2,2.9933596E-2,-4.9886694E-3,4.329583E-2,2.2821397E-2,2.618056E-2,-2.3409955E-2,4.21171E-2,1.0842695E-2],"categories":[],"categories_nodes":[],"categories_segments":[],"categories_sizes":[],"default_left":[0,0,0,0,0,0,0,0,0,0,0,0,0,0,0,0,0,0,0,0,0,0,0,0,0,0,0,0,0,0,0,0,0,0,0,0,0],"id":35,"left_children":[1,3,5,7,9,11,13,15,17,19,-1,21,-1,-1,-1,23,-1,25,27,29,31,33,35,-1,-1,-1,-1,-1,-1,-1,-1,-1,-1,-1,-1,-1,-1],"loss_changes":[5.294418E2,1.2874496E2,1.2388092E1,1.0294617E1,9.212872E0,4.3488464E0,3.7776923E-1,9.68904E0,1.3640442E0,3.5762405E-1,0E0,1.062628E1,0E0,0E0,0E0,4.2362885E0,0E0,1.3546753E-1,4.358568E0,5.5307496E-1,4.882431E-2,5.7022014E0,2.4697113E-1,0E0,0E0,0E0,0E0,0E0,0E0,0E0,0E0,0E0,0E0,0E0,0E0,0E0,0E0],"parents":[2147483647,0,0,1,1,2,2,3,3,4,4,5,5,6,6,7,7,8,8,9,9,11,11,15,15,17,17,18,18,19,19,20,20,21,21,22,22],"right_children":[2,4,6,8,10,12,14,16,18,20,-1,22,-1,-1,-1,24,-1,26,28,30,32,34,36,-1,-1,-1,-1,-1,-1,-1,-1,-1,-1,-1,-1,-1,-1],"split_conditions":[3.1465825E-1,3.331551E-1,3.726497E-1,1.5818574E-1,2.9163313E-1,1.8757328E-1,2.2439612E-1,3.21164E-1,2.0390423E-1,3.53673E-1,-2.6773548E-2,3.9566287E-1,4.2965557E-2,-2.7426308E-2,1.3373776E-3,1.3487346E-1,-2.9998694E-2,2.0721586E-1,2.5680792E-1,1.7115831E-1,2.3908353E-1,2.6630026E-1,2.6166338E-1,-8.774835E-3,4.312141E-2,-2.5795413E-2,-3.1558048E-2,-2.7497629E-2,1.0047232E-2,2.9933596E-2,-4.9886694E-3,4.329583E-2,2.2821397E-2,2.618056E-2,-2.3409955E-2,4.21171E-2,1.0842695E-2],"split_indices":[1,2,3,0,3,2,2,3,2,2,0,1,0,0,0,2,0,0,1,0,3,0,3,0,0,0,0,0,0,0,0,0,0,0,0,0,0],"split_type":[0,0,0,0,0,0,0,0,0,0,0,0,0,0,0,0,0,0,0,0,0,0,0,0,0,0,0,0,0,0,0,0,0,0,0,0,0],"sum_hessian":[1.4030001E3,8.859218E2,5.1707825E2,8.073781E2,7.8543724E1,5.0996222E2,7.116044E0,2.968317E1,7.7769495E2,7.393251E1,4.6112146E0,6.945371E1,4.405085E2,5.854582E0,1.2614625E0,1.5871101E1,1.381207E1,7.029959E2,7.469906E1,3.4059281E0,7.052658E1,2.1364887E1,4.808883E1,5.585889E0,1.02852125E1,4.1091454E1,6.619044E2,6.648148E1,8.217574E0,1.9761233E0,1.4298048E0,6.665769E1,3.8688912E0,9.666116E0,1.16987705E1,4.6618248E1,1.4705802E0],"tree_param":{"num_deleted":"0","num_feature":"4","num_nodes":"37","size_leaf_vector":"1"}},{"base_weights":[-7.419562E-4,3.0391172E-1,-5.430842E-1,6.817798E-1,-5.798395E-1,-2.783711E-1,-6.167199E-1,7.538372E-1,-5.5764306E-1,-2.444585E-1,-6.212841E-1,1.4726578E-1,-3.0928029E-2,-4.988098E-1,-3.1247405E-2,2.9331517E-1,7.78925E-1,2.2969132E-3,-5.8157015E-1,-4.6346053E-1,4.242275E-1,-3.124527E-2,-3.2559156E-1,-1.6899237E-1,4.9204364E-1,-5.861609E-1,2.1105452E-2,2.3365714E-2,-2.1233968E-2,-3.8893018E-3,3.9144855E-2,-1.620271E-2,-3.0419648E-2,9.849915E-3,-2.9607544E-2,3.6128208E-2,-2.0762412E-2,3.8597842E-3,-2.3620164E-2,-2.896647E-2,1.4142112E-3,2.9703414E-2,-8.867496E-3,-1.2865816E-2,-3.0781835E-2],"categories":[],"categories_nodes":[],"categories_segments":[],"categories_sizes":[],"default_left":[0,0,0,0,0,0,0,0,0,0,0,0,0,0,0,0,0,0,0,0,0,0,0,0,0,0,0,0,0,0,0,0,0,0,0,0,0,0,0,0,0,0,0,0,0],"id":36,"left_children":[1,3,5,7,9,11,13,15,17,19,21,23,-1,25,-1,27,29,-1,31,33,35,-1,37,39,41,43,-1,-1,-1,-1,-1,-1,-1,-1,-1,-1,-1,-1,-1,-1,-1,-1,-1,-1,-1],"loss_changes":[2.2871002E2,2.9637952E2,9.533295E0,5.591098E1,3.5455399E0,1.60447E1,6.539917E-2,6.5605164E0,5.28038E-1,4.7224693E0,4.9354553E-2,5.5078945E0,0E0,2.6856856E0,0E0,4.1914387E0,1.9552002E0,0E0,3.3982277E-2,2.1359901E0,2.3403597E0,0E0,3.288437E-1,2.1771693E0,1.7483692E0,1.1398792E-1,0E0,0E0,0E0,0E0,0E0,0E0,0E0,0E0,0E0,0E0,0E0,0E0,0E0,0E0,0E0,0E0,0E0,0E0,0E0],"parents":[2147483647,0,0,1,1,2,2,3,3,4,4,5,5,6,6,7,7,8,8,9,9,10,10,11,11,13,13,15,15,16,16,18,18,19,19,20,20,22,22,23,23,24,24,25,25],"right_children":[2,4,6,8,10,12,14,16,18,20,22,24,-1,26,-1,28,30,-1,32,34,36,-1,38,40,42,44,-1,-1,-1,-1,-1,-1,-1,-1,-1,-1,-1,-1,-1,-1,-1,-1,-1,-1,-1],"split_conditions":[1.5065208E-1,2.4443434E-1,2.2536342E-1,3.9092946E-1,3.0355313E-1,2.0390423E-1,2.6166338E-1,2.1497361E-1,3.9566287E-1,3.2129773E-1,4.136169E-1,3.1755993E-1,-3.0928029E-2,4.0734923E-1,-3.1247405E-2,2.8147787E-1,-1.601947E-1,2.2969132E-3,4.3702757E-1,1.445617E-1,3.2531837E-1,-3.124527E-2,2.2584245E-1,2.2298396E-1,4.3539953E-1,7.3474124E-2,2.1105452E-2,2.3365714E-2,-2.1233968E-2,-3.8893018E-3,3.9144855E-2,-1.620271E-2,-3.0419648E-2,9.849915E-3,-2.9607544E-2,3.6128208E-2,-2.0762412E-2,3.8597842E-3,-2.3620164E-2,-2.896647E-2,1.4142112E-3,2.9703414E-2,-8.867496E-3,-1.2865816E-2,-3.0781835E-2],"split_indices":[3,2,3,1,2,2,3,0,1,0,0,0,0,0,0,1,3,0,1,1,1,0,1,0,0,1,0,0,0,0,0,0,0,0,0,0,0,0,0,0,0,0,0,0,0],"split_type":[0,0,0,0,0,0,0,0,0,0,0,0,0,0,0,0,0,0,0,0,0,0,0,0,0,0,0,0,0,0,0,0,0,0,0,0,0,0,0,0,0,0,0,0,0],"sum_hessian":[1.3822218E3,8.853357E2,4.9688617E2,6.2032855E2,2.650071E2,1.0917899E2,3.8770718E2,5.866157E2,3.3712837E1,2.9905119E1,2.35102E2,4.8750565E1,6.0428425E1,2.9310345E1,3.5839682E2,3.096164E1,5.556541E2,1.2504042E0,3.2462433E1,2.27584E1,7.1467185E0,2.3115768E2,3.9443097E0,2.5692854E1,2.305771E1,2.7103065E1,2.2072778E0,2.520306E1,5.7585797E0,2.4786286E0,5.531755E2,4.2963195E0,2.8166115E1,3.6247618E0,1.9133638E1,5.375586E0,1.7711323E0,1.1802912E0,2.7640185E0,7.7130365E0,1.7979818E1,2.0105839E1,2.9518733E0,3.0299084E0,2.4073158E1],"tree_param":{"num_deleted":"0","num_feature":"4","num_nodes":"45","size_leaf_vector":"1"}},{"base_weights":[1.0690019E-3,-5.176102E-1,7.9480803E-1,-5.647377E-1,-2.712138E-1,8.195121E-1,-2.8582243E-2,-3.5276674E-2,-5.69161E-1,1.4789133E-1,-5.879598E-1,8.29509E-1,-2.53789E-1,4.4746923E-1,-2.404877E-2,-5.158226E-1,-3.0238122E-2,2.4083826E-1,-2.7746608E-2,-1.6123793E-1,-6.086865E-1,-7.47462E-3,8.331253E-1,1.6274646E-2,-2.572153E-2,-2.1366188E-3,3.7359383E-2,-2.6262596E-2,2.0167116E-2,3.2737595E-3,2.8265288E-2,-2.4239495E-2,2.0519506E-2,-3.1053632E-2,-1.258183E-2,2.308807E-2,4.191225E-2],"categories":[],"categories_nodes":[],"categories_segments":[],"categories_sizes":[],"default_left":[0,0,0,0,0,0,0,0,0,0,0,0,0,0,0,0,0,0,0,0,0,0,0,0,0,0,0,0,0,0,0,0,0,0,0,0,0],"id":37,"left_children":[1,3,5,7,9,11,-1,13,15,17,19,21,23,25,-1,27,-1,29,-1,31,33,-1,35,-1,-1,-1,-1,-1,-1,-1,-1,-1,-1,-1,-1,-1,-1],"loss_changes":[5.691608E2,9.555786E0,1.8912231E1,1.6215363E0,1.8163261E1,5.9732056E0,0E0,1.6941355E0,1.0079498E0,4.014781E0,5.895672E-1,2.0092773E0,1.0313746E0,5.928348E-1,0E0,2.6821976E0,0E0,2.988357E0,0E0,1.1167078E0,1.7006493E-1,0E0,